585 100
startseq -0.0010095044 0.009040917 -0.0039802077 0.003752406 -0.0021850585 -0.00016166593 -0.0026073335 -0.00038905034 9.9155885e-05 0.003150077 0.002795543 0.005400743 -0.009383738 0.0011122524 0.0022306554 -0.002115447 0.0008002335 -0.0047991937 -0.0038017274 -0.0055251913 -0.0060127713 -0.0016401752 0.0015669847 0.006589134 -0.0002872339 0.0025274882 0.005199384 -0.0015443757 -0.005487323 -0.00053210487 -0.007877532 0.00026202473 -0.0059796115 -6.918817e-05 0.0029828127 0.0042450144 -0.00083584076 0.0011637959 -0.0041016536 -0.005337296 0.0017841085 -0.002759325 -0.0039697355 0.000836453 -0.0019738912 0.0041773245 -7.038054e-05 -0.003762588 -0.002544587 0.0032405413 0.008489748 0.00373321 0.004057841 0.0037424164 -0.0026247697 0.00095671683 0.002201203 0.00055144506 -0.0066136094 0.0072084274 -0.00297675 -0.0050073243 -0.0029260865 -0.0032526576 -0.0019153944 -0.0021101094 0.00089599035 0.006667318 0.0019413546 0.0025473086 0.00041038828 0.0019908717 -0.0023991077 0.00102745 -0.0021868113 0.0018830773 -0.0037953004 0.00048563853 0.004374182 -0.001591458 -0.0073631066 0.009188006 0.0018193425 -0.005099956 0.000105859704 -0.0041322866 -0.0049453094 0.0010276525 -0.000542277 -0.0040944195 -0.0063828384 -0.0054856483 -0.001442464 0.0021400338 0.0011773972 -0.007906224 -0.007590776 0.008042146 0.00041586783 -0.004751933
endseq -0.001125965 0.0036001834 -0.0063702483 0.000665285 0.0005715549 -0.0014697174 -0.0025539913 -0.00017138905 0.00064055837 -0.0013809247 -0.001809283 0.002847749 -0.007982892 -0.0056212265 0.0033865364 0.0012823594 -0.0010193213 -0.004233958 -0.0066155046 -0.0028001044 -0.0014555558 0.0037448418 0.008010747 -0.0005203041 0.0059250365 -0.003910736 0.003951526 0.0018154792 -0.0056156917 0.0019067916 -0.0010863447 0.0031087871 -0.0041585015 -0.0010295396 -0.0051315175 0.0034931211 -0.005787567 -0.0028925177 -0.004747134 0.00091725553 -0.003664406 -0.004390599 0.004351166 -0.0075322846 0.003268705 -0.00030057464 -0.00013591202 0.0035859346 -0.0037336894 0.0011058842 0.005372634 -0.0024183826 0.0043327496 -0.0027614287 -0.00026042 -0.001565542 -0.0012698678 -0.0066535743 -0.002289645 0.00847981 -0.0040846593 -0.0014021368 0.0046488084 -0.0008740084 0.0041974653 -0.005946378 -0.0075700446 -0.0018825568 -0.004230336 0.0063860216 -0.0018018998 0.00047838892 0.0009542029 -0.0032126296 0.0018634403 -0.0017674005 -0.0018668586 0.002435694 0.0038123124 0.0021588732 -0.006234786 0.0092321895 -0.0023905088 -0.0031938027 -0.0043467768 -0.0053305943 -0.007317153 -0.0025850325 -0.005697238 -0.006935541 0.0025707334 -0.0042466675 -0.0031464465 -0.0003457449 0.0065490394 -0.006835962 -0.006634614 0.0003859568 -0.0015298284 -0.0035821446
in 0.0024372046 0.00876629 -0.0005793379 -0.0020685894 0.005328469 -0.00010293085 -0.004394875 -0.0062692934 0.001149927 0.0043175323 0.0066069434 0.0021986922 -0.003893796 -0.0051309937 -0.0012234359 -0.004706427 0.0038076267 -0.0023887428 -0.0020367752 0.00066883984 -0.0019304861 0.0054739225 0.0014634572 0.006350735 0.001240418 -0.0014188172 0.0011643189 2.3476518e-05 -0.0062056547 -0.0007747332 -0.0044847825 0.005644576 -0.0048816856 -0.004471772 0.0023692576 -0.0018805524 -0.0058355555 0.0026105507 -0.0045567034 -0.004201222 -0.0012234261 -0.0005776 0.004763165 -0.00103372 -0.0048337863 0.0017812862 0.00382512 -0.0014910827 -0.0016953989 0.006450406 0.0011327437 0.00027874732 0.0011371407 0.0021148256 0.0015599089 0.0002418476 0.00093237346 -0.002225856 -0.004368126 0.00037780748 -0.008913911 -0.0062793847 0.003556967 -0.004187826 0.002020698 -0.0013648022 -0.004654751 0.006086777 0.004822949 0.003592849 -0.0014978879 -0.00027435788 -0.0003163635 0.0011882285 -0.0050124684 0.001938276 -0.005798807 0.003997313 0.005456369 -0.0025475032 -0.007199606 0.0072748046 0.002425592 0.0018365893 0.002120304 0.0017352857 -0.0021334442 -0.0003170048 -0.0055897944 0.003029374 0.00074761035 -0.00257652 -0.008150724 -0.006421572 0.0036352677 -0.006609431 -0.0008363029 0.007568413 -0.00040582032 -0.0061320052
the 0.004346906 0.002718801 -0.0033708564 -0.0006580808 0.0052374806 -0.004528521 -0.0033351632 -0.0058596022 -0.00074305147 -0.0032339492 -0.00041655064 0.0073133935 -0.0014172054 0.00092526816 -0.0024216895 0.00030628627 -0.0046750717 -0.003977129 -0.0068623684 -0.007620081 -0.0017394848 0.00317544 0.008397284 0.005754921 -0.0024893598 0.00089477905 6.34103e-05 -0.00035571554 -0.00376185 -0.0033957432 -0.004167395 0.0061821598 1.6729018e-05 -0.0065971757 -0.00084726035 0.0011730476 -0.004141704 0.001954605 -0.005506576 0.0009023758 0.002145927 -0.0054767053 0.0017833336 -0.0077549526 -0.00032948283 -0.0047620377 0.0036190918 -0.0033548255 -0.00071692147 0.0027823353 -0.0003439906 0.002255237 0.005508495 0.0036496678 0.004647401 0.000281513 0.0017234766 -0.0057429937 -0.0018726557 0.0031850887 -0.003399819 -0.0029296482 -0.0034924736 -0.0031972586 -0.0023833902 -0.0039866464 -0.0026613506 0.0021084475 0.0026975619 -0.0033278011 0.0036940384 -0.0034329728 0.0022238176 0.00012626532 0.0030799108 -0.0006215596 -0.0012599177 -0.0001645415 0.0050809914 0.004568099 -0.0064394455 0.0044694403 0.0030721414 0.00024541724 -2.6014157e-05 0.00092044414 -0.0029704769 -0.0025628821 0.0037924822 -0.0015597842 -0.0051727253 -0.009485029 -0.00920884 -0.0063473475 0.0040707155 -0.0026899173 -0.006033388 0.0050645894 -0.004655508 -0.0029622305
dog 0.0032580697 0.0046876525 -0.005923873 -0.0051562763 0.0031956637 -0.0009104908 0.0012670071 0.0028104065 0.0016387913 -0.0035633715 0.0024163476 0.002992058 -0.0036835982 -0.0024631612 0.004828274 -0.0018407096 -0.0017501839 -0.0026728674 0.0023683065 -0.0012138061 -0.003388915 -0.0034378401 0.0027879213 0.0015600196 -0.002048818 -0.00018508037 0.0013592577 0.0009839423 -0.0019438907 0.001599672 -0.006853579 -0.0026978953 -0.0044340575 -0.0051538874 -0.004122728 0.0014309163 0.002678732 -0.004418291 0.0010258392 -0.004855461 -0.005306358 -0.0054539014 -0.0043403436 0.0016420953 -0.0042030797 -0.0026719163 0.00069596944 0.0013414429 0.0010945745 0.00040240586 0.0030665284 0.0007745449 -0.0034210468 -0.0011081983 -0.0031822429 -0.0040087267 -0.0028261268 0.0023860969 -3.5974204e-05 0.0008828928 -0.005509052 -0.002546623 0.0013302525 -0.0036168308 0.00560176 0.00035568437 -0.0056965044 0.0039641657 -0.0031756153 0.0033631383 -0.0048814802 0.001904944 -0.0021769903 -0.00071753724 -0.0030900121 -0.004162537 0.00248905 0.002455576 -0.0009483412 -0.0007717352 0.00023641063 0.0075787576 0.0049846666 0.0033415135 0.0010955506 -0.0052401973 -0.0013928239 -0.00024234025 0.0005423289 0.0013873283 -0.0029566758 -0.0043629534 -0.00013320113 0.0033987851 0.004062745 -0.0044629592 0.0013339871 0.00645687 0.0007348584 -0.003020235
and -0.0004696075 0.00607404 -0.0010756964 -0.0013792266 0.0046248855 0.0005670881 0.004302962 0.0011608653 0.0030960096 0.0048688906 0.0016274655 0.0012996009 -0.008779314 -0.002835758 0.0007585216 0.0020345284 0.0018085887 -0.0056922124 -0.0023937705 -0.0015298931 -0.00084030675 0.004720749 0.0022893862 0.006867126 -0.0013015999 -0.0013456693 -0.0014203506 0.0019924734 -0.0066595497 -0.0044239 5.7603884e-05 0.005953369 -0.0039800983 0.0015389207 0.0036234828 0.0008946831 0.0013568175 0.004702678 0.0017306891 -0.004875744 0.00085614505 -0.0014866609 0.0025399819 -0.0032018248 -0.0023069677 0.003383831 0.006681631 0.0045190463 0.0021867733 0.0071661295 0.0076385625 -0.0021333166 -0.002911157 0.002065377 -0.0016314227 0.0027303612 0.0013498873 -0.004856995 -0.008716623 0.00022578603 -0.002583632 0.0024187695 0.0012959795 0.00013061332 0.0030278424 -0.004559648 -0.007877195 0.0054976973 0.0040718457 -0.0037249415 0.002427898 0.0025173407 0.0026162702 -0.0053029046 -0.0017253861 -0.0043842047 -0.0073931077 0.0044251527 0.00043739995 0.00068874005 -0.0013719754 0.0050779437 0.0012985774 -0.0036311103 0.0013918595 0.0011199027 -0.0021996647 -0.0017480768 0.0023264089 0.0032618653 -0.0060797567 -8.226451e-05 -0.008181677 0.0026486663 0.00505029 -0.0034957323 -0.005841286 0.004115272 0.0026824612 -0.002564756
is 3.81499e-05 0.0044841664 0.0014164841 0.0011344296 0.0016751993 -0.005283855 -0.0047535803 0.0028656777 0.0022379577 -0.0009190099 -0.00027698258 0.004651073 -0.00817336 -0.0022337434 0.00023270663 -0.0016811382 4.1320687e-05 -0.0033893143 -0.0068161227 -0.0046262625 -0.0023693512 0.0015496918 -0.0014727509 0.005853468 0.0030057854 -0.004634446 0.005008071 0.0022652866 -0.0076208995 0.0012698879 -0.0075638015 0.006534042 0.0034699577 -0.0051218728 0.0019825513 0.0023101005 -0.005956319 -0.0015413084 0.00052507635 0.0010389704 -0.0012919232 -0.0023991766 0.0021093534 0.0020508482 -0.00033373194 -0.0034701235 0.0010723546 0.0024868187 0.0025973523 -0.0018782094 0.0065061087 0.000890726 0.0006439494 -0.0044754054 0.00092554867 -0.0031738437 -0.0021002046 0.0005177866 -0.007797547 0.00728546 -0.0070979143 0.0010359894 0.0016425394 0.0015250737 0.0040405015 -0.006293074 0.0009403335 0.0030905935 -0.0018709726 0.001967468 0.004425959 0.001647536 0.0016818309 -0.0020469758 -0.0047889734 0.0011529281 -0.004466183 0.00012442218 0.0053677484 -0.003132309 -0.0016162395 0.0024286865 -0.0010159411 -0.003529323 -0.0035186268 -0.0060598957 -0.0037683265 0.0020669138 0.00071443326 -0.0036484192 -0.00087493047 -0.0083524715 -0.0067799464 -0.005152423 0.0018093626 1.1812569e-05 -0.0017241756 0.0030692283 -0.0029164553 0.0017060422
on 0.0023558908 0.008314711 -0.0046340507 -0.00021761154 0.0039226534 0.0027057822 0.001699507 -0.0033933125 -0.0027080546 -0.0028183188 0.0048960317 0.00089609355 -0.0042886417 -0.0031095918 -0.004201036 0.0028512217 -0.0016237983 -0.00426643 -0.0011524237 -0.0017878274 0.000113890215 0.00016395323 0.0030584442 0.00417708 -0.0011283545 0.00431887 -0.0022814022 -0.0015135031 -0.0031668928 -7.983378e-05 -0.006906231 0.00033042743 -0.0055570877 -0.0013450147 -0.0032243074 0.0045759114 -0.0065557193 -0.002692625 0.00027643013 -0.00473801 0.0015757981 -0.003859678 0.0016835246 -0.0056032343 0.0004887358 -0.0049389955 0.0031350057 0.0001732737 0.0012871496 0.0057967165 0.0053090295 -0.0026776332 -0.00040764807 0.0020770377 0.0008705161 -0.0048858407 0.004858336 -0.0070766136 -0.008444573 0.007005098 -0.0056134956 -0.00017713472 -0.00349917 0.0029694072 0.0011731121 -0.004509804 -0.0020965936 0.0011372488 -0.0012561328 -0.0038089028 -0.001908131 -0.00014618177 0.0012163945 0.0025198034 -0.0049105664 0.0036323015 -0.000863968 0.0015816161 0.0025514252 0.00456892 -0.0058617853 0.0017313136 -0.00075795344 -0.0013537684 0.0011039941 0.0022550286 -0.0010876745 0.0019365085 -0.004520202 -0.0053877225 -0.0027136526 -0.004690053 -0.0061284644 0.001704392 0.0007970975 -0.005001489 -0.0056928666 0.007173594 -0.004240647 -0.003199061
boy -0.0025982256 -0.0024792524 -0.004627547 -0.0042227455 0.004222581 0.0025999162 0.0017266108 -0.0053803073 -0.0022531715 -0.00014476912 0.0022469633 0.005157276 -0.0059841773 -0.0017420901 -0.0011634757 -0.0018520624 -0.0033954997 -0.0010602401 0.0025240488 0.0018583457 -0.0013485379 0.0045419396 -0.0013656588 0.0026873508 -0.0023154533 -0.00092088856 -0.0004533664 0.001938862 -0.006162044 0.0039888564 -0.0031685643 -0.0017254804 0.00083000376 -0.0060667633 0.002542239 0.0046084113 -0.0026451345 0.0028934125 0.0029420261 -0.0015601849 0.00024124705 0.0027285132 0.00023582517 -0.0041018296 -0.00065953325 -0.0022538481 0.0031963761 0.0024422428 0.00314147 0.0053741713 0.004955743 -0.0038754342 -0.0029636025 -0.0039603384 0.0034759678 -0.0045646327 0.0041993037 -0.0033776762 0.001240427 0.003161571 -0.0025684435 -0.004761452 -0.0039623384 -0.0037772073 -0.00023093112 -0.004705812 -0.0048300787 0.00038329672 0.0013725032 0.0016335989 0.0033161705 -0.0048259287 0.0056096227 -0.004858328 -0.0026401544 0.00014600823 -0.006405641 0.0046548164 0.005017496 0.0005603479 0.0014850671 -0.0014735495 0.0016140487 0.0036333431 -0.0021770943 -0.005508994 -0.00055145874 -0.004703441 -0.005118347 0.00044753545 -0.0006999576 -0.0058060586 -0.0029440103 -4.2716936e-05 2.4758332e-05 -0.005960147 -0.0045663933 0.0010167253 -0.0041341735 -0.0001828721
of 0.0038003002 -0.00029683748 -0.0027492268 -0.0031872673 0.0015214063 -0.0031830813 0.004605976 -0.00047008513 -3.3346994e-05 -0.002256791 0.0017358268 -4.874934e-05 -0.0071967184 0.0026707447 -0.0018910753 -0.0016722162 -0.0039345934 -0.005200752 -0.0032841007 3.334471e-05 -0.0071923016 0.002584564 -0.00026994542 0.0028859165 0.0030092183 -0.0035408593 0.0024923384 -0.0008597545 -0.0034575057 0.0011373451 -0.0072347806 0.0060916985 -0.0029396147 -0.0035096386 -0.0006514589 0.001819505 2.5845751e-05 0.0035090395 -0.0004971985 -0.003562723 -0.005167659 -0.0010315015 0.0023697796 -0.0069628875 -0.0034551045 -0.00036211414 0.0024157146 0.0016156412 0.0032651094 0.0018035861 0.004539268 0.0047255536 -0.0007148963 -0.0044781463 -0.0016647791 -0.005354659 -0.004086608 -0.0037251061 -0.008410422 0.0045192726 -0.0008464856 -0.002462677 0.004932478 -0.0032721513 0.0036730205 -0.006195883 -0.0032261447 0.0021752699 -0.0009672964 0.0026090986 -0.0032279314 0.002887835 0.0048603155 -0.0048012664 0.0030251641 2.9350695e-05 -0.0026969428 0.0013285797 -0.002232812 0.0058861533 -0.004788107 0.0022502106 0.005872021 -0.0034740937 -0.00029549762 -0.0033785612 -0.004136446 -0.0052219937 0.0034906785 -0.003369567 -0.0060949633 -0.006393478 -0.004971359 0.0018420129 -0.0029274 -0.0007555237 0.0005537313 0.0034306645 0.003028793 0.002656252
man 0.0006817951 0.006400456 -0.004816034 -0.00015334746 -0.0027652753 0.002446707 0.0038888415 -0.0050908313 -0.002735017 0.002693431 -0.000892431 0.0040301997 0.0010461948 0.002489485 -0.00020189537 -0.0019594894 -0.0034364783 -0.0033705782 -0.0005037142 -0.0011134299 -0.0029764427 0.0031611954 0.0056966105 -0.0029048717 -0.0008171139 0.0012548667 -0.00047351775 0.0033320978 -0.004877238 -0.001775749 -0.006017223 0.00016462957 0.003366994 -0.0037246428 -0.0036403546 -0.0026887688 -0.0059539275 -0.004082229 -0.0033830106 -0.0038283735 -0.004311534 0.0029852877 0.0017742107 0.00036681438 -0.0046132863 -4.486643e-05 -8.890207e-05 0.003686076 -0.0018237907 0.0028909792 0.0049675824 0.0017033557 0.0028131541 0.0031323957 -0.0020342015 -0.00046354876 0.0025564693 -0.0058216485 -0.002498738 -0.00028252674 -0.005640241 -0.0016625256 0.004191443 -0.0044506183 0.0046591456 -0.0034322161 -0.00043234858 0.00523286 -0.004437427 0.0051099663 -0.0026612207 -0.00078637974 0.005188154 -0.005097307 -0.0047588265 0.0034783853 -0.0011253331 -0.003974799 0.00044494824 0.0017540018 -0.00074882084 0.0050982716 0.0018635291 0.0026985607 -0.003199979 0.0021737118 -0.0017134147 0.00023541965 -0.0002815204 -0.0028760412 -0.00084374414 -0.0010905992 -0.0023344439 -0.0047255186 -0.002655301 0.0028796399 -0.0038086644 0.0032682172 0.004948264 -0.00016712733
black -0.0037445754 0.0030925672 0.0033077195 -0.00050993386 0.0047767074 -0.0010345639 -0.0033194504 0.00046503497 0.0041899914 0.0012373552 0.0036594025 0.0008951499 -0.0034850042 -0.004652727 -0.004783537 0.002678824 -4.5970854e-05 -0.0037257555 -0.0037140574 -0.005632831 -0.0024457406 0.0026924852 -0.00028507982 0.0008268648 -0.0033507587 0.0031403415 0.0018123396 0.0020533032 -0.004373163 0.000467022 -0.005959828 0.004509487 0.0005726756 -0.0010767535 0.0006072733 -0.0018428616 -0.0025385125 0.0042553 0.002653542 -0.0012382632 -0.004516538 -0.0045482586 0.003404425 -0.0029446958 0.0013309423 -0.0009867649 -0.0009731709 -0.0017701633 -0.0024499048 0.0045317006 0.005331188 0.0002499858 0.00090382213 0.003459489 -0.0022106394 -0.0008482975 0.0043863906 0.0024485774 -0.0030179846 0.002151483 -0.0052576466 -0.00055094535 0.0045772973 -0.002629051 0.0013777368 -0.0004884705 -0.0027577272 -0.0014610104 0.00096270087 0.005381024 0.0040813745 -0.0042941547 0.0040143626 -0.0028865347 0.0032460238 -0.000114209164 -0.0023066865 0.0024360635 0.004079406 -0.0017038004 -0.0025122832 0.00055221084 0.004905586 -0.002502682 0.0047602095 -0.00037987504 -0.002242643 -0.0015187237 0.003996761 0.0016426599 -0.005870605 -0.0013078045 -0.0068544038 -0.003704477 -0.0015905589 0.0012953865 -0.003767596 0.002341646 0.003917013 0.0005107677
with 0.0009728786 0.00525015 -0.0014178319 -0.0015330255 0.0031104605 -0.001613444 0.0047002607 0.0005930063 -0.00087639707 0.0013073593 -0.0015370804 -0.0019738744 -0.0026768474 0.0036273599 -8.7603e-05 -0.0053838803 0.0027797262 -0.0028767553 -0.0022988743 -0.004270121 -0.0041681593 0.002063625 -0.00012417005 0.0072330236 -0.0032034242 -0.001589016 0.0016315186 -0.0046988833 0.0006407222 0.0045737256 -0.006194765 0.0026887695 -0.00020115038 -0.002092589 -0.0043267505 0.0010839269 -0.0012615706 -0.0031476824 -0.0022880088 -0.00055681745 -0.0026996578 -0.0014133556 0.0015363588 0.0026459382 -0.00460476 -0.0022761011 0.0029172048 -0.0002862383 -0.00288989 0.0028163008 0.007120815 -0.0038165175 -0.0032509936 -0.0026986506 -0.0031124062 -0.0034731608 0.0036929701 -0.0011133003 -0.00729251 -0.00047210572 -0.0050923927 0.00247596 0.0019610985 0.0039271694 -0.0015478098 0.0002898951 -0.0022488483 0.0053407955 -0.0042247176 0.0034712092 0.0049363924 0.003726231 0.005165457 -0.004584977 0.0044153286 -0.0038165855 -0.0044946084 -0.0016545943 -0.0037836889 -0.000639153 -0.0006343344 -0.0007212844 5.1328167e-05 -0.004445451 -0.0022327488 -0.0012787159 -0.00531547 0.00073758845 0.0030742774 -0.0011531413 -0.004015187 -0.004253902 -0.0028921512 0.0031602962 0.0020002523 -0.001848263 -0.000103076716 0.0016627021 0.0004665183 -0.0039600227
girl -9.330158e-05 0.006646255 0.0022952203 0.0011536983 -0.0012696345 -0.0032611256 -0.000666998 -0.0028199516 0.0047549345 -0.004747634 0.00528054 -0.00053119846 -0.0004405037 -0.0034576133 0.0025211703 -0.0013005155 -0.0031249488 -0.0034364061 -0.0010343653 -0.001694239 0.00027543152 -0.0040126895 0.0027846787 0.0025857983 0.0007758816 -0.0010668394 0.002749842 -0.0017465107 -0.0044885203 -0.00013375987 -0.0020279454 -0.0011482545 -0.0040153107 0.00057853723 0.0025100124 -0.0017707641 -0.0010754315 0.0040856395 0.0012503148 0.002343888 -0.0051876097 0.0014945505 0.0022540896 -0.0005645475 0.0046922048 -0.0049132486 0.0059393505 0.0028755385 -0.0026040967 0.0053561493 0.0041991035 -0.0028987357 0.004731979 0.004847161 -0.0025063246 -0.0010494221 -0.0010515102 0.00033171533 -0.0043600127 -0.00038141033 0.001726374 0.0002632401 -0.0009808147 0.0034281733 -0.0034200817 -0.0058657117 -0.007063013 0.003240533 -0.0036087213 0.0010458898 0.004240015 0.0025764052 0.000496198 -0.005180958 0.004716653 0.0018783866 -0.0028035098 0.0004091964 -0.0031256054 0.0025923369 -0.004103967 0.0016588802 -0.001538096 0.00049711316 0.004218234 -0.00032579314 -0.005342785 0.0036443544 -0.0034759387 0.00066580524 -0.0032112545 -0.0055896454 5.7354187e-05 0.00016719024 0.003550165 -0.0010758062 -0.0030027176 0.0044783517 0.0027610501 -0.001090225
to -0.0008590002 0.0081798155 -0.0047239796 -0.0055026906 -0.0033543592 0.0025487575 0.0032831468 -0.0053896173 0.0008007753 -0.00016219256 -0.0028016309 0.0017294853 0.0004831107 -0.006026278 0.0042676837 0.002252267 0.0008961685 -0.005560482 -0.0028014027 -0.0012515698 -0.006418893 -0.0031122877 0.0065774824 0.004584205 0.00014692968 -0.003060025 -0.0007312053 0.003121874 -0.0030102197 -0.002475701 -0.0026112068 0.006128335 -0.00068919477 -0.004544923 -0.004604423 0.0031835546 -0.0054774615 0.00055802066 0.0015256922 -0.00410642 -0.0006723151 -0.0048129074 -0.0035997005 -0.0064083566 -0.001409231 -0.0017660459 -0.0006046451 -0.0027432537 -0.0022976373 0.0002064995 0.004765314 -0.004765585 -0.0018521431 -0.0040431367 0.003666512 -0.0011356815 -0.003311804 -0.00042227577 -0.003842545 0.0059189345 -0.008001267 -0.0042758114 0.0057662483 0.0016419406 -0.0006776785 -0.0044310987 -0.0035493919 -0.0015227215 0.0038864787 0.0049489094 -0.004496424 -0.0021206413 -0.0024861791 0.0025351073 -0.0011343677 0.0013409893 -1.2134867e-05 0.0044221324 -0.0012378593 0.003822639 -0.0008661532 0.0009834133 0.0004388528 -0.0033873785 -0.0010010469 0.0022445947 -0.0033000454 -0.004823075 -0.0019734409 -0.0054386854 -0.0067183645 -0.004184295 -0.0016088971 -0.0016399629 7.063756e-05 -0.0029044081 -0.0064540263 0.004552072 -0.0009815197 -0.0009861548
water -0.0031257584 -0.00059180224 0.00020885878 0.00037612588 0.0053965272 -0.004265212 -0.0015668735 -0.002203102 0.005047326 0.001894612 0.0014164875 0.00014331607 -0.0012423365 -0.0022238938 -0.001652125 -0.0019568563 -0.004281048 -0.0019676844 -0.0015143986 -0.0027719783 0.0023978604 -0.0010424436 0.0065846727 0.004164942 0.0053146007 0.00243377 -0.0044302717 0.0022733053 0.0030556663 0.003235383 0.0020861018 0.00050631014 -1.7337117e-05 0.002431597 -0.0049301023 0.003675412 -0.002322141 -0.004741308 0.0013232062 0.003179912 0.002623365 -0.0033893797 -0.0031135299 0.0016854138 5.6594967e-05 0.0043068696 0.003734157 -0.0019910778 -0.0024896313 -0.0026485021 -0.0013042857 0.00196222 -0.0034208118 0.0030455862 -0.003251764 -0.00073858333 -0.002007605 0.0010211095 -0.007191803 0.0003902287 0.00018143946 0.0018270705 -0.00020749366 0.0033324875 0.0054704193 0.0020365189 -0.004959771 -0.0021492972 -0.003470171 0.0046648374 0.0029018621 -0.005384264 -0.0034607376 -6.476084e-05 -0.002793854 0.0017886617 -0.0016843424 -0.00064928445 -0.0004230202 0.005225284 -0.00055686 0.002842182 -0.0035328106 0.002307882 0.0048373807 1.879649e-05 -0.0030544042 0.00399245 -0.0034135703 -0.002842339 0.0006476098 0.0017563226 -0.0068608695 -0.0023921346 0.0018643355 -0.0050600288 -0.0035590688 0.00045146802 0.004688588 -0.0012215492
brown 0.0038365878 0.0029778979 -0.000980767 -0.0012429472 -0.0002788673 -0.0028001978 0.00029734932 0.0033348317 0.0022038748 -0.0047598314 -0.003979283 0.0047015883 0.0002107887 0.0006460672 0.0018219277 0.0017077052 -0.0021358267 -0.0059976783 -0.00060323515 -0.002276122 9.035677e-05 -5.296055e-06 0.002605741 0.005715842 0.0008478589 -0.0002225462 -0.0039800815 -0.0019585595 0.0031126165 0.004274955 -0.0053326692 -0.0031623496 -0.00074897247 0.0026948042 -0.0025478594 0.002016351 0.0019994264 -0.004695854 -0.003291744 -0.0019880182 0.00077840063 -0.0018234457 -0.0020619754 -0.003156023 0.00077899016 0.0038556228 -0.0004301805 -0.0041696574 0.0028071015 -0.0025689814 0.0031007833 -0.0048247282 0.0043441635 -0.00090798433 0.004262105 -0.0039735343 -0.0039059415 -0.001266828 -0.0059324238 0.00025963952 -0.0030964394 -0.0011944318 0.0009062132 0.0034361933 0.0022091013 -0.0055815824 -0.0015641896 -0.0032334912 -0.0021787488 0.0023268508 -0.0047379285 -0.0032312803 0.0018190057 0.002596775 -0.0017854848 0.0007949157 -0.0044566575 0.0036775914 0.002525847 0.0042357007 0.0012176429 -0.00090971193 -0.0017871781 -0.003592033 0.0011822465 8.320113e-05 -0.0025402226 -0.0050276117 0.0008903848 0.0022817748 -0.0026739214 -0.0011950231 0.0017630049 -0.0005549699 -0.0007253382 -0.006053957 0.001221915 0.00024373013 -0.0042256447 -0.0013636752
woman -0.0020665945 -0.003302583 0.0017749392 0.0005579126 0.0041180425 0.0024713515 -0.0016789841 -0.004436044 0.004976887 0.004571544 0.0009119576 -0.0029398464 -0.0057819756 0.001223705 0.0005956896 -0.0005145871 -0.0022403926 -0.00575616 -0.0041694115 0.00038653333 -0.0032748836 -0.004009066 0.002703839 0.0035695243 0.0011949637 -0.0017436487 -0.0038649435 0.0003561101 -0.004119511 0.0049064457 -0.0052075908 0.0038457694 -0.00231498 0.0018004206 0.0024688928 -0.0024225605 0.0014078305 0.0015038627 0.0017086676 -0.003949504 0.001940703 -0.0011973552 -0.002111658 -0.0030434842 0.00094416033 0.0002715373 0.0049774866 0.004463487 0.0043505104 -0.0011948224 -1.0578928e-05 0.0016990402 0.004499558 -0.0010802771 -0.0003161161 0.0008212381 0.00047695838 -0.0053368593 -0.0033346952 0.0052329483 -0.0018079123 0.00076672615 0.0013222935 -0.004316043 0.0020861821 -0.0019195167 -0.0013162639 -0.0031453432 0.0026215536 -0.0035845574 -0.0045644804 -0.0015857986 0.003945228 0.0011336528 0.003915078 0.0029901622 -0.0047983686 0.0038801292 0.003926458 0.0045457347 -0.004130994 0.002256011 -0.0003934968 -0.0012960822 0.0038886438 -0.0020495842 0.0020897654 -0.0008186371 0.0023763939 -0.001399987 -0.0049383305 -0.0061238958 0.0028756936 -0.0021862157 -0.0026530584 -0.004415568 -0.004627894 0.0014351695 0.0027588175 0.0045167226
are -0.0010203567 0.006146967 -0.004319706 -0.002871249 -0.0001938548 -0.0032845407 0.0024520825 0.0029868376 -0.004402839 0.004312475 0.0018518219 -0.0024261952 6.361441e-05 -0.0034304236 -0.002872631 -0.0055521275 -0.0027601707 0.00048472796 0.0018777924 0.0010529975 -0.0037858207 0.0022781978 0.003084839 0.0017506172 0.0056182267 0.0031704227 0.001682589 0.004855269 0.0023444013 -0.0039694463 -0.0046812342 0.0010653298 -0.0016586706 -0.004576595 -0.0048007756 -0.0008649454 -0.002644511 -0.0023695924 0.00020215307 6.636919e-05 -0.0047626835 -0.0048478586 0.0002696003 -0.0044903792 0.004555662 -0.0034209082 0.00082668447 -0.0029593748 -0.004026385 0.0027656523 -0.002107034 -0.0010597119 -0.0036022558 0.001108854 -0.0011181477 0.00039817215 0.004085861 -0.0012998369 0.0011493124 0.0057886736 -0.0062991977 0.003291199 -0.003639424 0.0011392728 0.0027768062 -0.0035769558 -0.0021399476 -0.0021597217 -3.920548e-05 0.0038418423 -0.0024545712 -0.0021057134 0.0025264674 -0.0030217038 -0.005116215 -0.001124366 0.00097350456 0.0016356646 0.0016064697 0.0044393274 -0.0024891507 0.0044171163 0.0038820533 -0.00046245442 -0.0031348045 0.00034177818 -0.005549229 -0.0021075797 0.0035709692 -0.005352338 -0.00547228 -0.0026037558 -0.0008905318 -0.00086118106 0.0018288504 0.0018953317 -0.0011438438 -0.0021896276 0.0006365899 -0.005541676
blue -0.0051744096 0.004249131 -0.0027887698 -0.005318843 -0.0031019596 -0.0015606119 -0.0033020857 -0.0042855293 0.0033005395 0.0031299505 0.004204365 0.0022799326 0.0012808071 0.0023258494 -0.0030392625 -0.004871657 0.0025241359 -0.0065598753 -2.5170684e-05 -0.0005869031 -0.0035850676 -0.00358516 -0.0009157361 0.006799414 -0.00010973111 0.0005928717 0.0015931535 -0.0034663696 -0.0042710714 0.003433332 -0.00028176492 0.00691851 0.0041017956 -0.0055604377 0.0015749256 0.0038593116 9.18365e-05 -0.004032548 -0.00617407 0.003188301 -0.004307406 -0.0039583473 -0.00042806185 -0.0004066585 -0.0010690031 -3.7537477e-05 0.005816286 -0.0010238794 -0.0009818117 0.0007219345 0.002869403 0.0008239086 0.0007241842 -0.0009108185 0.00045308642 -0.0030424444 -0.0008450113 -0.005984973 -0.003041854 0.0049075102 -0.002585199 0.001189409 -0.0020878122 0.00363411 -0.002375866 0.0033762788 -0.0017792535 0.004577724 -0.00289038 0.004464428 0.004590365 0.0022001376 0.0042117466 -0.0023785555 -0.0021674123 -0.004460175 0.0006403894 0.003020593 -0.0030095922 0.0035370651 -0.0033271243 0.0012973093 -0.0008902974 0.00423807 -0.0019918294 0.0031436847 -0.0016296598 -0.0051206653 -0.00061447674 0.0039063003 -0.0056709503 -0.0021259035 -0.0047054603 -0.0038546287 0.0022625942 -0.0005374487 0.0019716995 -0.00064532226 0.0014462929 -0.004247551
white -0.00020243609 0.006717024 -0.001457166 -0.0011202627 -0.00038618263 -0.004584616 -0.0037119868 0.0017019485 -0.0038217069 0.0020471192 -0.002648101 0.0050298064 -0.0015079253 0.004043126 -0.0042759306 -0.0016907434 0.0014168292 0.0013298822 -0.0040859445 0.0018715526 -0.0016735123 0.00297177 0.0026724436 0.005307947 0.0046711774 -0.0018425694 0.0028247244 0.0033171629 0.002347339 0.00091862894 0.00077668787 -0.0011037928 -0.0019157345 -0.00046171455 0.00015238549 -0.0009326521 -0.0033147582 0.0028010795 -0.0021008654 0.0015222185 -0.0037530826 0.0024363096 -0.0033606442 -0.0055086943 0.0041375966 0.0008967329 -0.0023351118 0.0046728477 -0.005282384 0.0016542922 0.0010327267 -0.0046434724 -0.0010959341 -0.0013074772 0.004349091 0.0043039625 0.00048062022 -0.0011683668 -0.0026551217 0.0013498394 -0.006497402 1.9651472e-05 0.0032708973 0.0036709232 -0.0011605606 0.003218779 -0.0039108056 0.0026303665 -0.0032730668 0.0036775535 -0.0015047949 -0.001191583 0.00028251286 -0.0026622063 -0.002180284 -0.0014242394 -0.004458668 -0.0005395313 0.004299466 -0.0023021216 -0.00077723607 0.0027181967 -0.0022169314 -0.00020612685 -0.004794095 0.00074605184 0.00021967881 -0.004566646 0.0023044664 -0.00531472 0.00020608687 -0.0018417586 -0.0025219596 0.0007121053 -0.00026423266 0.00040027048 -0.0014680616 0.004661583 0.001402869 -0.00046191455
at 0.0045284503 0.004755751 0.001153043 0.0007292219 0.0011523049 -0.0024595638 -0.004114565 -0.0036000623 0.00447235 -0.00090556935 0.003976809 0.0020997012 -0.00070050405 0.0031504438 -0.003009742 0.0033124962 -0.0003429788 -0.00532616 0.0009703782 -0.0037523732 0.0025233133 0.0048505166 -0.0026491517 -0.0018998744 0.005098554 0.004449975 -0.0032436515 -0.0010611512 -0.0043194625 -0.002767654 -0.0026502672 0.006504935 0.0021397509 -0.003108793 -0.004152136 0.003344854 0.0003581208 -0.00018125326 -0.0037790262 -0.003365657 -0.0058981883 -0.004814386 -0.001887936 -0.004778817 -0.0023873746 0.0030181308 0.0007762201 -0.0009027952 0.0044442965 0.0035089506 0.0018435789 0.004380894 -0.003967873 -0.0009493188 -0.0041367463 0.004319927 -0.0025958745 0.0002608855 -0.0020578378 -0.0020024027 0.0010367305 -0.0018314904 0.005449245 0.0022512216 -0.0020862957 -0.0036320363 -0.002711267 -0.0008936585 0.0028518415 0.0020697534 5.673381e-05 -0.002354328 0.004310197 0.0025795277 0.0016201652 0.004300883 0.0022704594 0.0024707098 -0.0031880196 0.005108641 -0.001142512 -0.00033856212 0.0014309975 -0.00026040812 -0.0025816301 -0.0028847496 -0.00021944821 -0.004789838 -0.0014498116 -0.0012127532 0.0013590326 -0.0048474055 0.0007003175 -0.0032539011 0.0060336147 -0.0011022536 -0.0047934162 -0.00033063153 -0.0010056968 0.004266603
jumping 0.0011746795 0.0009781012 -0.00143841 0.002052313 -0.0024481434 -0.0038645037 -0.00058595964 -0.0020646038 0.0027250764 -0.002432017 0.0019701382 0.0037831555 -0.0037454634 -0.0029649641 0.0011464576 -0.00010037534 -0.004850458 8.696067e-05 0.0020407762 -0.004544862 -0.0020085874 0.0038258282 0.0023567625 0.0066496306 -0.0020289032 -0.0015018346 -0.0045018164 -0.00074780465 -0.0021334884 0.0027310976 0.001851613 -0.0013393994 -0.00049723487 -0.0025607373 -0.0025315078 -0.00024647798 0.0036595552 0.0033636529 0.0030165918 -0.0036930593 -0.0048636375 -0.0052505312 -0.0013976346 -0.0048085367 -0.00034916843 -0.0040593036 -0.0029040605 0.0048231627 0.0028373394 -0.0019498775 -0.00238979 -0.0042471574 -0.0029969472 -0.0025122513 0.0033373798 -0.0029468206 -0.002117817 -0.0026797694 -0.0063322634 -0.0015828974 0.0018338248 -0.0037595022 -0.0026133882 0.0042994763 0.0023878133 -0.0018231667 -0.0049293363 -0.0024817672 0.00052871363 0.0039395955 -0.0035256492 -0.0014842447 0.0019282489 -0.00057783467 0.0018110512 0.0019900575 9.957556e-05 0.0014310661 0.001108143 0.004304811 0.0029733684 0.0032794052 -0.0027594797 0.0023398192 -0.0037654182 -0.0017997301 -0.0027944832 0.0021736552 0.00064796925 0.001926676 -0.0049540945 0.0016464838 -0.0034654816 -0.0041280785 -0.003661036 -0.005908846 0.0012989864 -0.0011552069 -0.0009913032 0.0018736143
into 0.003323422 -0.0022659504 -0.0026176148 0.0012463862 0.0015702189 -0.006482639 -0.0010594276 0.0019532216 0.0026717414 -0.0020543574 -0.0037324065 0.00036778004 -0.003365569 -0.0009724882 0.000469944 -0.0034500058 -0.0052605304 -0.0031113746 -0.004089146 -0.005026064 -0.0024366048 0.0028563058 0.00023224347 0.0070391404 0.0008021839 0.0025660566 0.0053472887 -0.0017146617 -0.005593461 -0.00016644578 -0.0015557641 0.005091281 0.0011888752 -0.0020702423 0.0036529868 -0.0032364556 0.0034356695 -0.0010601953 0.0010277632 -0.0029626004 -0.0055238684 0.0026456602 -0.0006181215 0.0029351932 0.0026482833 -0.0021869205 -0.0009503931 0.0025892057 0.0042109527 0.006104309 0.004730707 0.0043803127 0.0017037669 0.0046710763 -0.0013443113 -0.0034164698 0.0031850052 -0.0037271674 -0.006945483 0.0034067186 -0.0030179883 -0.0016410653 -5.6962566e-05 -0.0046589137 0.0027503713 0.0024986295 -0.0008970567 -0.004035694 6.5052154e-06 0.005235089 0.0019386031 -0.0043313703 0.004430035 0.0021221552 -0.0012563413 0.0009627761 -0.0045647533 -0.0025962885 -0.0034464733 -0.002100546 0.0012191576 0.006024034 -0.0038054856 -0.0044587413 0.002929427 -0.0017542086 -0.0038330543 0.00036983125 0.00095907884 0.0035225141 0.002549914 -0.0035464405 -0.003029038 0.0035876161 0.0017422088 -0.005291367 0.0010578115 0.0020944944 -0.0042550075 0.000506446
his 0.0017522405 -0.0015915802 0.0036167593 -0.004302282 0.003790029 0.0021594346 -0.0019992942 0.003104753 0.00321535 -0.0016554612 0.005828114 0.0027283358 -0.0065153698 -0.004302933 0.0036604248 -0.004494264 -0.0035638486 0.0010852814 0.00042685174 0.0018157705 -0.0064532515 0.0026924727 -0.0017818264 -0.0019631584 0.001281944 -4.7679638e-05 0.0022772104 -0.0047715246 -0.0042047696 0.0034461983 -0.0037278607 0.0060467287 -0.0011365204 -0.0060296473 -0.0015792409 -0.0019149452 -0.005037392 0.0016293485 -0.004412921 -0.005066511 -0.004853511 -0.0016409326 0.001239762 0.00021608798 -0.0045131 -0.003575801 -0.0020521532 0.0018064957 -0.0034633335 -0.0019528276 0.0033337125 0.0012908151 -0.0020919056 -0.0044040326 -0.00080090365 0.0040539782 0.0054795584 -0.0058693667 -0.0047406508 0.0006711533 -0.0031289335 -0.0030404774 -0.00355794 -0.0021738538 0.002412669 0.0038946609 -0.0062764385 -0.00046092848 1.804184e-05 0.0035905435 -0.0010594956 0.0015361576 -0.0014633737 -0.0033335346 -0.0017495832 0.0032150417 -0.0046977727 -0.0015443985 0.0009125725 0.0029766234 0.003490289 0.0018525836 0.0053495686 -0.0005599103 -0.004840387 9.707694e-05 -0.0051737786 -0.0013199367 0.0008914035 -0.0013253754 0.002520499 -0.0063056136 -0.0015907739 0.0042221006 -0.0012893642 -0.00031855187 -0.0015420335 0.0022222407 -0.001835433 -0.0045345873
people -0.0012010161 -0.0006616521 -0.0010103388 -0.0037295155 0.00489066 -0.0024127918 0.002125608 0.0029356866 0.0026354124 -0.0017448514 -0.0014001244 -0.00089847035 -0.0055092657 -0.003977992 0.0031050942 0.0019537297 0.0004583356 -0.0030250975 -0.0040177824 -0.004834549 0.0009634202 0.0053739543 -0.00028667419 0.0040257704 0.0012439422 -0.0041738576 0.0013124127 0.0030667237 -0.0010216646 0.0032751062 -0.007227892 0.002788269 -0.0021775323 -0.005304462 0.00039371618 -0.0026082804 -0.0060613435 -0.00198714 -0.0027327777 0.0035763674 -0.0039937366 -0.006039457 -0.0032064966 -0.0035054246 -0.002981353 0.00018934098 0.004000208 -0.0032521917 -0.003759325 -0.0012599997 0.0042599444 0.004492009 -0.0035783648 0.003380775 -0.0050104326 -0.004756019 0.0012755956 -0.001469516 -0.0013744255 0.0013753477 -0.0038944713 0.0034045768 -0.003478769 0.004054656 0.0046744845 -0.0010706946 -0.0043322765 -0.00070769206 0.0019295196 0.0050220764 -0.0027945652 0.0032773016 0.0011505986 0.00048704975 -0.0035972027 -0.004008023 -0.0042032935 -0.0032282956 -0.00115064 0.0010704023 0.0023640161 0.00025117942 -0.00015098753 -0.00042837232 -0.00445741 -0.0050621433 -0.0021521652 -0.005277625 -0.0009526285 -0.0042888834 -0.002609944 -0.0067145517 -0.007080723 0.0031524433 4.3898735e-06 0.0012936232 -0.0061194096 0.006041792 -0.004648839 -0.0026178767
an -0.004840514 -0.0023294282 -0.005082303 0.004626608 0.0011021731 -0.00046453605 -0.0024437665 -0.00037723102 0.0029053877 -0.00213451 0.00015392619 0.003120446 -0.005155215 -0.0051200665 0.00270473 0.003297919 0.00072044233 -0.005637215 -0.0026426765 -0.0020164358 -0.0010117866 0.004207256 0.004654481 0.0053331177 -0.0033326994 0.0030315206 0.00014893585 0.0010611211 0.0005434691 -0.0036173917 0.0022241548 0.00095386157 0.0022866311 -0.0016605307 -0.0019380989 0.0030822393 -0.0036634202 0.004756954 0.0014785978 0.0024681059 -0.0061131967 -0.0047872695 -0.004757395 0.002477037 0.000110758716 -0.0019892112 0.0011799396 -0.0012614197 -0.0054932507 0.001655825 0.0049736737 0.004871654 -0.0014073993 0.0018210843 -0.0039740507 -0.0008531782 -8.376154e-05 -0.0019873118 -0.0027031326 0.0006442828 -0.0028620255 0.0012275185 0.0016350627 0.0011887737 0.0012343738 -0.003781665 -0.0043969913 0.004121049 0.0024838673 0.0016210517 -0.0046785413 0.004270087 0.0014893493 0.0038974225 -0.0044392347 -0.0013395977 0.0007369591 -0.0020830354 0.0006870398 0.0038485017 -0.0038455199 -0.00022640184 -0.0027374167 0.0028360148 -0.0009624428 0.0026255338 -0.0029864104 -0.0055781156 1.9338522e-06 -0.0025924721 -0.0035646355 0.0015917249 -0.0041435994 -0.0013463084 0.0013113276 -0.005726646 -0.0007974516 0.003721515 -0.0024508978 -0.0018782277
playing -0.0013518273 0.0037755412 -0.0026653323 0.001652884 -0.0016520189 0.0015452577 0.0006918042 -0.0020131476 -0.000110866575 0.0005810062 -0.0022099558 -0.0032238434 -0.004293385 -0.0026124995 0.00091328693 0.002592316 0.0012434099 -0.0045535946 0.0006303923 0.0011305544 0.0023591437 0.0005367242 0.0009833619 0.0014624031 0.0050773392 3.2468624e-06 0.0010015728 0.0023898974 0.000103682934 -0.00016718196 -0.0030207809 0.005306357 0.003913501 0.0028465067 0.00034060903 -0.0038901293 0.0032457286 0.0025645758 -0.0038156635 -0.003763606 -8.52314e-06 -0.004412758 0.0030186628 -0.004995357 0.00050144485 0.0010002556 -0.0015924209 -0.0017558417 -0.0020971263 -0.002426747 0.0011227581 -0.0012019377 0.0052775545 -0.0044060634 0.0029803608 -0.0044123605 -0.004383217 -0.0021551482 -0.0061034835 0.0049506845 -0.0043548387 0.0014690422 0.004411925 -0.0033756976 -0.0030375582 -0.0026796309 -0.006448418 0.0011285446 0.0027482407 0.005513368 -0.0041063516 0.003356839 0.0055933855 -0.00029504302 -0.0023931595 -0.004338368 -0.00079204823 -0.0023911437 -0.0011557725 -0.0022252053 7.178023e-05 -0.0024106472 -0.0023014585 0.00012092598 0.0030683319 -0.0036733907 0.00335569 0.0011915517 0.00014669115 -0.0017194934 -0.0013869178 -0.004610991 -0.005436266 -0.0018610844 0.0056244493 0.0024551603 -0.0005095598 0.0007856705 0.004204354 -0.0036736138
child -0.0008256411 0.003990642 0.0012343909 0.0019809152 -0.0012724509 0.001805102 0.0026305972 -0.0015408258 -0.0006695797 -0.0049042064 0.0003901628 0.0057567353 -0.0017242073 0.0035573386 0.0012295103 -0.0013069853 0.0032280097 -0.0008074134 -0.0047462867 0.0017186755 -0.0057619754 0.0044270884 0.0011729691 0.003887151 0.0017033303 0.0045706946 0.0028570727 0.0036053588 -0.002517808 0.003716235 -0.0014124056 0.002636779 0.003127329 -0.0053786347 0.0042424276 0.0015285119 -0.0002229051 -0.0024577372 -0.00384558 -0.0042234804 0.0025375406 0.0009048662 -0.0042805574 0.0007939718 0.00084596494 -0.00092681515 0.0011515998 0.0007619416 -0.00055556174 -0.0028163756 0.005070566 0.0016456248 0.0005489029 0.0011726309 0.0048892805 0.003035927 -0.0024825316 -0.0005272056 -0.0017463147 0.005402662 0.001005594 -0.0050366907 0.0009074075 -0.0011286404 -0.0007282157 -0.001705154 -0.00012200455 0.004005407 -0.004199321 0.0033500092 -0.003965396 -0.0041909153 -0.004209074 0.0043311245 -0.003750745 -0.0018972631 -0.0050348425 0.004002855 0.0041877134 -0.0024637622 -0.00079618586 0.005824235 0.0029161156 -0.0026308796 0.0016115991 4.308759e-06 -0.0028011736 -0.00053863943 -0.005206265 -0.004476976 -0.005224055 -0.0061403536 -0.003267858 -0.0034881483 0.0040829433 -0.0057257256 -0.0029234935 -0.0038094863 0.0003780591 -0.0006154432
two -0.0040672296 0.0053322436 -0.004665091 -0.0044066636 0.0012654637 -0.0053526014 0.0032159982 0.0036942558 0.0007896631 -0.004597523 0.0012857317 0.004952554 -0.0016315347 0.0025728815 0.0001444023 -0.0036898141 -0.0012257856 -0.0049617826 -0.0011024439 -0.0035344134 -0.004269401 0.0029350608 0.004261929 0.0018130976 -0.0010024307 0.0007610485 0.0020639698 -0.0036696836 -0.004697361 0.0009358289 0.0024646148 0.0031048066 0.0035785963 -0.00095089857 0.00036905654 0.0044190115 0.0002680308 -0.003648977 -0.0061811674 -0.0031983592 0.00078033714 -0.0030424553 0.0033041404 0.0007079793 0.00033190605 -0.00086223497 0.002736432 -0.0032588 -0.0015517594 0.005302202 0.0006752223 -0.004271602 0.0040568854 0.003696272 -0.001513623 0.003835426 -0.0023772595 0.003223151 0.00041866495 0.0055393437 9.1834765e-05 -0.005126976 0.0041758325 -0.0047045434 0.00022326739 -0.0040161326 -0.0054371436 0.0010185167 -0.00041568186 -0.0029218176 0.0025834176 0.0013597673 -0.0034949498 -0.0016124756 0.002966639 -0.0047238655 0.0013401384 0.0039200913 0.00064233004 0.004767339 2.898804e-05 -0.0007493646 0.0007257874 -0.0016817056 0.0042497814 0.0031417136 -0.0023731461 -0.0051453244 0.0009993614 -0.003258747 -0.0016846339 -0.004152187 -0.0062998217 -0.00515269 0.004988213 -0.00055539695 0.001732847 -0.002866042 -0.0012867842 0.0014458732
red 0.0044488413 -0.0027708258 -0.0008769062 0.002971123 0.0049526556 -0.0019048871 0.0014735949 -0.0009753945 0.0027103766 -0.0040492695 -0.0031776207 0.0022235215 0.0002857399 0.0009824521 0.0013040411 -0.00024922608 0.0015936156 -0.005664496 -0.0029588134 0.001324543 -9.540316e-05 0.000498831 -0.00078824547 0.00029879322 -0.0009869061 -0.004878748 -0.0030428322 -0.0009073875 -0.0047969916 -0.0004249074 -0.0047651753 0.0017364662 0.0037298445 0.0013736686 0.0044940226 0.0018783554 -0.001520894 -0.0030320347 -0.0013937814 0.001017267 0.0020199986 -0.0060999095 0.00027897494 0.00087699754 -0.0006947325 -0.0021395502 -0.0030379414 -0.00023051808 0.0038758523 0.0010061112 -0.00063838117 0.0046764445 -0.002865407 -0.002562791 0.002078723 0.0011369304 0.0054042353 4.9646453e-05 0.00016840063 -0.0026591928 0.00026189614 0.0026376606 0.0005676985 -0.0051756557 -0.0012487078 -0.002035618 -0.0016021893 -0.001038805 0.0037132099 -0.003765472 0.0022772914 -0.00023807619 0.0022465154 -0.001629561 0.0008250687 0.0048533813 -0.0011264392 -0.0026159792 0.00091333245 0.0053400854 -0.004015581 -0.0010917545 0.0058051683 0.0036328393 0.004784556 0.0019301529 -0.005344835 8.149599e-05 -0.0047498923 -0.0036872653 0.0040815505 -0.0024023321 -0.006794855 0.00085310725 0.00035543213 -0.005314708 -0.00050053303 0.006063359 -0.0034587607 -0.0041822908
walking 0.00023064237 0.0035012222 -0.004696492 -0.0022674066 -0.0010329766 -0.001307057 0.0018413088 -0.0012700849 0.0031141117 0.004875406 0.004779548 0.00030937654 0.001909185 0.0020343254 0.0043592067 -0.0005617058 -0.0020124363 0.0028969203 0.0039254036 -0.0037420501 -0.0050584446 -0.0024794922 -0.002074593 0.0021097134 -0.00030094988 0.0002089959 0.003082141 -0.0032126736 -0.006195528 0.0037983607 -0.0060062227 0.002396214 0.002747673 0.0021995984 -0.0052040005 -0.0042312006 -0.005039171 0.0009379523 -0.0033836633 -0.0049701994 -0.004024009 -0.00423391 -0.00027660263 -0.0015547595 -0.00038121096 0.0046575204 0.005907248 0.000515805 0.0008046179 0.0026473938 -0.001750962 0.002636021 -0.00069380354 -0.0023936771 -0.0038176908 -0.0004971716 -0.0035083564 -0.0029807847 -0.0026421591 -0.0024360293 -0.0017038023 0.0024056314 -0.0016770244 -0.0033880607 -0.0026237674 0.0029206746 -0.0031532163 0.0026228665 0.0012762534 -0.0008701837 0.0009044824 0.002400873 1.5208727e-05 -0.0011161626 0.00011094895 0.00048671913 -0.006064944 -0.0028585421 0.0010518687 0.0016449057 -0.005646779 0.001532579 -0.0003870262 -0.004096259 -0.00023661753 -0.0021183994 0.0008969429 -0.0025555117 -0.0030720376 -0.0017619481 0.001993446 -0.0059191533 -0.0048467666 0.00063894014 0.0034347454 -0.0037271366 -0.0007210348 0.003833315 0.0038121885 0.0010021573
down -0.0031450696 -0.0021170077 -0.0050136726 -0.0009411393 -0.0036415164 -0.0031282108 0.0031575507 -0.0008061752 -0.003485951 0.0008450402 -0.0006254582 0.003626494 -0.001565534 0.00062994886 0.004890278 -0.004672918 -0.0011223373 0.001501796 0.003152077 -0.0035482992 -0.001241208 -0.001376555 0.00026107256 0.001541688 0.0047017345 -0.0033997353 0.004207132 0.0040714103 -0.0013367828 0.0036322644 -0.004890409 -0.0011849499 0.0009313373 -0.0030683842 0.00039497393 -0.0017750702 0.002395416 0.0026265685 -0.0038906354 -0.0013433185 -0.0015518903 -0.0064722844 0.00096088817 0.0026040685 -0.0027215395 -0.00045840853 0.0056122304 0.0040806658 -0.005487074 -0.0030538747 0.0023052325 0.0045297206 0.0048236353 9.6486365e-05 2.7099652e-05 -0.0012205999 0.0027570296 -0.0040996177 -0.0069693653 0.0050431173 -0.0027388493 -0.0017837979 0.0029070652 0.00089219346 0.00036779046 -0.00081072596 -0.006387342 0.0059629134 -0.0036308735 0.0034932366 0.005014762 -0.0054692146 0.0029577545 -0.002146811 0.002824695 0.0032375928 -0.003685485 0.0036711378 0.0009126277 0.0016481733 0.0022772632 0.003752553 -3.7044672e-05 -0.0037247706 0.0040104557 0.0035009128 0.0028524378 -0.0031392314 -0.002350108 0.00061284314 -8.18147e-05 -0.0050446033 -0.0051618223 0.003368136 0.0022784614 -0.0016791929 -0.0062704855 0.0001542146 0.0019076816 -0.0051192334
near -0.003891816 -0.0010769801 0.0030116627 -0.00509402 -0.0027488952 -0.002640493 0.0034686206 0.003291289 -0.004057662 -0.0047941837 0.004606863 0.0034216724 -0.0011983662 0.0009338547 0.0042516403 -0.003335135 0.0039425036 -0.0051941425 -0.005108212 -0.002134263 -0.0024541584 -0.0007590085 0.0014732844 -0.001790822 -0.00053133466 -0.0031474659 0.0039275098 0.0049258787 -0.00048409012 0.003201385 -0.0047256546 0.001979561 -0.003928129 -0.0004327398 0.0024777425 -0.0032145635 0.0023579155 -0.00029352412 0.0014955468 -0.0016302565 -0.005579184 0.002089262 -9.1210415e-05 -0.0050100554 -0.00021380247 -0.0046657627 0.0051006274 -0.00012303959 -0.0007412988 0.006336427 -0.0004077685 -2.5499612e-05 0.0026172113 0.0015222646 -0.0025935755 0.002121735 0.0019166442 0.0003722244 -0.0059548556 0.006075099 -0.00464544 -0.0027815641 0.0037059472 -0.0033260332 0.0012310611 0.001713514 -0.0039882194 0.0010420842 0.0047306605 -0.0024761604 -0.0020919268 0.0011006889 0.0022122124 -0.0054357466 -9.9447774e-05 -0.0025950936 0.002588612 0.003361895 0.002627562 0.0024359918 0.0024817921 0.007124794 -0.00067431846 -0.0038950373 0.0035664542 -0.0041294536 0.0017979543 -0.00028478063 -0.002269677 0.0015045988 0.0010804292 -0.0032240096 0.000644514 0.002720128 0.0015925812 0.0012763247 0.0007079301 0.0023339493 -0.0042471467 0.0041262256
air -0.0011082286 -0.00074273197 -0.0036285452 0.0025738068 0.0049038334 -0.0049823825 -0.0014275445 0.0017243056 -0.001371562 0.0019341536 0.0015971037 0.0037913674 0.00085682306 0.00086798525 -0.0027629528 -0.002320775 0.0008253403 -0.005262526 0.0010662804 -0.0017226712 -0.0033639355 0.0013442201 0.0023253022 0.0011039759 0.0029985781 -0.0011705935 -0.0030021942 0.003839705 -0.0012458758 0.0038146195 0.0021289675 0.0060368553 -0.00033712303 0.0023852512 -0.0038799318 -0.0017851023 -0.0025538316 -0.004054776 -0.0018565855 0.0036408333 -0.0018860971 0.0030155175 0.00026556262 -0.0032856984 0.003006917 0.002602652 -0.0037956543 0.00014957416 0.0015990357 0.004955394 0.0051199286 -0.002878378 0.0029535592 0.00013182942 -0.003200491 -0.0051785354 -0.0035051927 -0.0016205455 0.0014131987 0.000118624215 -0.0024244264 -0.0016586668 0.0004570453 0.002197486 0.0034107915 -0.00044327122 -0.005975622 0.0015768807 0.0023756975 -0.0028592409 -0.0047273417 -0.00073011045 0.0011746074 -0.004268651 0.0021192145 0.0034508936 -0.0012194347 0.0012790111 0.00075218553 0.0051171905 -0.00014259113 -0.0033030508 -0.0038446258 -0.0052943183 0.0030543117 -0.0019934056 0.0026465429 -0.000654503 0.0036992622 -0.0015311308 0.0025266102 -0.0058735884 -0.004897992 -0.0051651793 -0.00032342997 -0.0025121374 -0.0033383812 -0.0038461848 -5.390858e-05 0.0004436975
while 0.0009657841 -0.0014752373 -0.0036096566 0.0005600002 0.0016975616 -0.0052176164 0.0042453627 1.244886e-05 0.004378787 0.0011208538 0.0016995295 0.0017507339 -0.007249574 -0.0038681065 0.0016179483 -0.004841067 0.0011484154 -0.0038773268 -0.00614971 -0.0032343382 -0.006197196 -0.00070040894 0.003808382 0.0039241235 0.0049131564 0.0019189193 0.00029266375 -0.0016479839 0.00030879257 0.0018993678 -0.00256682 0.002502138 -0.005243724 0.002243993 -0.0002317316 -0.0045544226 0.0010880493 -0.005010781 -0.0058848755 0.0016077269 0.001802882 0.0029532046 -0.004486997 -0.0030636555 0.0029637387 -0.0029314926 0.004956211 -0.00029611168 0.0014967455 0.00043366212 0.003675672 0.0009298868 -0.0011845005 0.004505283 -0.0011796206 0.0030368383 -0.0030203322 0.002992151 -0.0013309136 0.000907229 -0.005298061 0.0032883075 0.0036684657 -0.0048058527 0.0020626986 -0.0031152782 -0.0023847164 -0.0014034286 -0.002626445 -0.0019291539 0.0025375993 -0.0010334516 -0.0005625731 0.0022961025 -0.003602031 0.0027728144 -0.0026565245 -0.0016772064 0.005700961 0.0052185217 0.002339165 0.0069067674 0.00041605197 0.0037021958 0.0010475713 -0.002468644 -0.0021726901 0.00024560787 -0.0049525104 0.0014563731 0.0008088895 -0.007240586 0.00020615637 -0.004144261 0.004087476 0.0026718439 -0.0023105599 0.00045414479 0.0047167577 0.0016701637
ball -0.0048353327 0.002729612 -0.005326109 -0.0049905227 -0.0010404538 0.002768818 -0.0006972579 0.0018935696 0.0037346673 -0.0029329215 -0.0015705585 0.0026586908 0.00073839084 -0.0026184309 -0.0020298006 0.0020522538 -0.00018269381 0.000762121 -0.00050596404 -0.0055515296 -0.00056719704 -0.0018811485 0.0034319665 0.0031653687 0.0016467371 0.0010012626 -0.0039510825 -0.0017547758 -0.0035319044 0.0012556536 0.0011944645 0.006401458 0.0016187906 0.0033382867 -0.0020475036 0.00025234272 0.00036818619 0.00072736107 -0.005948008 -0.0018498742 0.002553871 0.0020412852 -0.001944208 0.0037433228 -0.004345052 -0.0015566548 -0.0007912075 0.0013024613 9.488868e-06 0.002176367 0.004910373 0.0029566472 -0.0011987886 0.0024464943 0.003756098 -0.003161726 -0.0032746848 0.0029869508 -0.0026543047 -0.0027260222 3.8189864e-05 0.0015592052 0.00496708 6.499978e-05 0.0018236707 -0.000518689 -0.0014503978 0.0041329954 -0.0017102893 -0.0026274703 0.0026443824 0.0036271436 0.00229559 0.0014167243 -0.0011383526 -0.0034923595 0.0018695757 -0.0013355133 0.0025376654 0.0038926506 0.0017019475 -0.00054665963 0.0037726313 0.0030846407 0.0021589363 -0.0026987593 -0.006312711 -0.0004956325 0.0039059701 -0.0050902837 0.0041250708 -0.0052221757 0.0012921828 0.0024045287 0.0029412103 -0.005597612 0.0027618373 0.0014901822 -0.003422836 0.0032863184
running -0.004076314 0.0015519907 -0.0008333469 4.0197152e-05 0.003181694 -0.005473143 -0.0014897109 -0.0042150677 -0.0031756486 0.0041779745 0.004038071 0.005897953 -0.0004200992 0.001528779 0.00026973843 0.0004413598 0.0016049341 0.0008024501 -0.0044943127 -0.0049316334 0.0010730651 0.00089207536 0.004237484 0.0034246012 -0.00068352796 -0.0006063606 0.0013946452 -0.0012025131 -0.005982785 -0.0008592008 -0.0044434867 0.0007352795 -0.0049354704 0.00050617766 0.00075102184 -0.0029027413 -0.0027835022 -0.0025691413 -0.003891817 -0.0031026886 -0.0032349753 -0.005295638 -0.003890918 -0.0033089158 -0.0020274783 0.0020801437 -0.0009263886 -0.0034575078 -0.0048630713 2.1898035e-05 0.0061118877 -0.00069303584 0.0030257355 -0.002860486 0.0021823202 0.0037532884 0.0040205927 -0.0026465866 -0.0006242872 0.0032083853 -0.004553535 -0.0010889965 0.0022560447 0.0039919675 0.0015052867 0.00097230996 -0.00420418 0.0021840963 -0.0009835275 -0.0022713325 -0.00030752787 -0.00022100552 -0.0040988815 -0.0029792273 0.0012633385 -0.0038760987 -0.004419389 -0.0015583779 0.0005594939 0.0028687888 -0.002667131 0.0034945284 -0.00029435422 -0.003078901 0.00065343344 0.0038317412 0.000559886 -0.004792916 0.0029961874 -0.0009624419 -0.0022228719 -0.0019719198 -0.0030191236 0.0013056733 0.0027342103 -0.005423713 -0.0019237599 0.00412497 -0.0021202555 0.0034295104
grass -0.003304409 -0.0005955783 -0.0040454664 -0.0010548561 0.00015031903 0.0028596148 -0.004862798 0.0015473661 -0.0025593678 0.0003824504 0.0048567066 -0.0008131441 0.00015866381 0.0012358578 0.0002298083 -0.0033440334 -0.0025385604 -0.0029451307 -0.005223008 0.0036721108 -0.0042829667 -0.0014865753 0.005526153 -0.0013457907 -0.0010286128 -0.0019213894 0.0018288371 0.0013727304 0.002823753 -0.0034572901 0.003013768 0.0050547547 0.004204093 -0.002375188 -0.0037871236 -0.0036135584 0.0030400187 -0.00015258172 -0.003319557 -0.00056348677 -0.00075511186 0.0015928742 -0.0016109903 0.0009559086 0.00342682 0.0017247933 0.005275517 -0.002543349 -0.003236117 0.0055513354 0.002749193 -0.0019221469 0.00087929546 -0.0043950775 -0.004204024 -0.003866041 0.00016842067 0.0011838886 -0.0023279008 0.0026745372 -0.005448817 2.5080117e-05 0.0002340957 -0.0021875224 -0.003757317 0.002696749 0.0029590763 0.0038035342 0.0031303528 0.002114523 0.004468986 -0.0015565722 -0.0028688586 -0.0025454666 0.0025443598 -8.863796e-05 0.0031822152 -0.0005327665 -0.0012363512 -0.0032417476 0.00027021774 -0.0023474742 -0.0012961386 0.0044179494 0.0044358578 -0.0046685063 0.0005960488 -0.0019684269 0.0021552502 0.0034836829 -0.0031247158 -0.0017372918 -0.00565629 0.0007342032 -0.0031873893 0.0019541152 -0.002662962 -0.0010822887 0.003301448 -0.003004252
standing 0.0010281773 0.0053158156 -0.0045772423 -0.004583584 0.0049939915 -0.0050961412 0.004563365 0.0041390928 0.0033373057 0.0005816025 0.0048375186 -0.0034837394 0.0017987272 -0.0006323201 0.0008904095 -0.005148494 -0.0018036922 -0.0047084554 0.0022042952 -0.0020331212 -0.003899342 0.002520374 0.00088559306 0.0014244462 -0.0025570388 0.0039338097 -0.0045602843 0.0026945835 -0.0031687005 0.00399236 2.0317195e-05 0.0027462856 -0.0024431325 0.0015693115 -0.003018848 0.0048553776 0.0010913461 0.002188823 0.0039354386 0.004089547 -0.0025758722 0.0012981133 0.00066099234 0.003649094 -0.0014261665 -0.0007018967 0.0034415359 0.0011850137 0.004361713 -2.5993757e-05 0.0012746453 -0.00087669434 -0.0027874087 0.00082641724 0.0022140285 0.0027755809 0.0022846274 -0.0008167492 7.161081e-05 0.0036373904 -0.00176769 0.0044903387 0.0051035862 0.0017857273 0.0013169316 0.00081649557 0.0028397401 -0.0014242709 0.0008260099 0.0027394735 -0.0013401322 -0.0016398756 0.00062789733 -0.0020292453 0.0017091852 0.002643892 -0.0035922034 0.0023615167 -0.0015834302 0.0033257545 0.0015257634 0.0015188663 -0.00055229315 0.0013855431 0.0046507623 -0.0053052027 0.003001916 -0.0047443234 0.00014796012 -0.0033590482 0.003565061 0.0002863175 -0.0039139623 0.0022835094 -0.0033162187 0.0038327342 -0.0006853733 0.0008945571 -0.0016007109 4.1260437e-06
from 0.0030968229 0.004058613 0.00031589527 -0.0014023841 -0.004051815 -2.8229122e-05 -0.0021346693 0.001327491 -0.0016237217 0.0025299357 0.00086269976 -0.0017875249 1.5141322e-06 0.00173664 0.003669721 0.0037268836 0.001980383 0.0022100774 -0.0058302013 -0.0052711694 0.0022884966 0.0049155876 0.002137033 0.004367491 -0.001496699 -0.0012229716 -0.0002019125 -0.00318644 -0.0064349794 -0.002280442 -0.0040759337 0.004529197 -0.0023385892 0.0034232296 0.0024844778 0.00088940334 -0.0012756176 0.004732995 0.001066802 0.004128811 -0.0004750434 -0.0028657895 -0.0039092517 -0.0053647636 -0.0015180623 -0.004351678 -0.0014056556 0.0035254206 -0.0022497755 -0.0008756299 -3.0237621e-05 0.0020796568 0.0032351085 -0.0010123514 0.0034183622 -0.0011154702 0.004085267 -0.00081306207 -0.0055303196 -0.0023696658 0.00020933745 0.0018941048 0.0031160275 -0.0055854972 0.0010553849 5.4292756e-05 -0.006431419 -0.0029507743 0.0003305326 0.002466216 -0.0027985037 -0.003366422 -0.0025497812 0.0037089763 -0.0012924316 0.00075558654 -0.0018389666 0.0039032379 -0.0021928987 0.0055719824 0.0019171087 0.006496466 0.001696757 0.0029950982 0.0016406437 -0.00393777 -0.005014442 0.0011851474 -0.0026072413 -0.00020668744 -0.0025264972 -0.0053428677 -0.0035070283 -0.00025222046 -0.0036221412 0.0024115527 -0.0015490764 0.0019708383 0.0025350074 0.0015814226
through -0.0016766796 -0.0011958366 -0.00032797028 -6.873842e-05 0.0042614024 0.0022483626 -0.00016750033 -0.0026283667 0.0025418114 0.002033383 0.005015657 0.0036035636 0.0029911043 -0.00012965353 0.00400795 -0.0016919355 -0.002602408 -0.0001588813 -0.0047997804 0.0010541792 0.0038159806 -0.0042305286 0.002361995 -0.0018943422 0.004141173 -0.0037398152 -0.003378349 -0.003200422 0.00056570885 -6.308994e-05 -0.003962912 0.0009612582 -0.0046447995 -0.004178558 6.096416e-05 -0.004451879 0.00012340175 -0.0023411547 -0.0036382144 -0.005604747 0.00035684314 0.0015273163 -0.002699263 -0.0029258318 0.0010197277 0.0047397576 -0.0004786048 0.0044385483 -0.0033502735 0.0025622437 0.0043965895 -0.004859872 0.0036881813 0.000630091 -0.0003717573 -0.0054023373 -0.001067029 -0.005661173 -0.00096818455 0.0046096332 -0.0011556224 0.0004308666 0.0014505209 0.0039630933 0.0054191565 0.0018580706 -0.0015685834 -0.0030116448 -0.0021697232 -0.003269891 0.0047002905 -0.0009025519 -0.0039223316 -0.004922594 0.0031739501 -0.0014537099 -0.005660978 -0.00017952004 -0.0003079998 0.0019186203 0.0036184024 0.00680354 0.005639173 -0.0028246492 -0.0039333142 2.555936e-05 -0.0013928127 0.0009881202 0.0030303325 0.003764123 0.002932399 -0.0036567256 0.002430751 -0.00240636 -0.00073740166 -0.0046306173 0.0006124409 0.0007829731 0.0018904071 -0.005004561
green -0.0021322959 0.0043108035 -8.594369e-05 0.0033585283 0.0019129105 -0.0027349612 0.002809057 -0.0033048883 -0.0012189478 -0.0031949827 -0.0005011526 0.0043615904 -0.0024959128 -0.00021963814 -0.0023351314 -0.0042622965 0.0024414076 0.002854017 -0.0038086977 0.0003847661 0.0023207883 0.0021265666 -0.0013014673 0.005491568 0.0013428831 -0.00042832684 0.0042466433 0.0009535865 0.0028271547 -0.0019937775 -0.0050488636 -0.0035476435 -0.0009666187 -0.0012904503 0.001589055 0.0040268092 -0.0014970715 0.0034545206 -0.0038806463 -0.00060798234 0.0025988915 -0.0015917617 0.0007659547 0.00059787655 0.0027182486 0.0025293825 0.005333655 -0.0023630701 -0.002700787 0.0033573336 -0.0014701338 0.0017011142 -0.0003565222 0.0029701209 0.004539684 -7.52912e-05 -0.00094416353 -0.0022057525 0.002607849 0.000354439 0.002083742 -0.00029111723 0.001722387 0.0028137881 -0.0028311391 0.0014589381 0.0024462088 -0.002750124 -0.0042331666 -0.004119138 0.0014758519 0.0038505734 -0.0011124029 -0.0014140133 -0.0040443717 -0.0037436043 -0.0054715388 0.0018156997 0.0040240213 0.0004752042 -0.0042047994 -0.00037653532 -0.0013573479 -0.00047491526 -0.002847945 -0.004996816 0.0025313208 0.003963328 0.0028238604 0.000363447 -0.0005943109 -0.0016076963 -0.003964702 -0.004189511 -6.720287e-05 0.0016196581 0.00028824995 0.00568225 0.0029623285 -0.0050123837
wearing -0.0045674923 -0.0019564042 -0.0017196005 -0.00503583 0.0025241715 -0.0013235544 0.00059828506 0.00067936536 0.0048940987 -0.004371518 -0.00071495917 0.0047183954 -0.0046278466 0.0035791928 -0.0010327927 -0.0003709909 -0.004878254 -0.005434154 0.0013261198 -0.0039898404 -0.0053224447 -0.002725929 -0.00011542394 0.0015592389 0.0025667716 -0.00156259 -0.0011188696 -0.0047137346 -0.006149293 0.0009385846 -0.0028218979 -0.0013964826 -0.0011892107 1.9440267e-05 -0.0040953234 -0.0013754924 -0.0049433573 -0.0028572793 -0.006303057 0.0025975083 -0.005447402 -0.002977474 0.0039075743 0.003116862 -0.0019788654 -0.0030249401 0.0036117565 0.0023766153 0.0026301849 0.0028575673 0.00097621145 -0.003870772 0.0027130346 -0.004776829 0.0008717018 0.0023481995 0.0027050057 -0.0004001524 -0.0014376452 0.0007973284 -0.0050959927 -0.003905521 0.00076049456 0.00043863332 -0.0009566169 -0.0030080355 0.002821494 0.004091946 0.003608702 0.0025843983 0.0009309832 7.5715514e-05 -0.003417941 -0.0052508484 -0.0048165587 0.00013233002 0.002492758 -0.004006765 0.0039889566 -0.0022664266 -0.0030735137 0.0064087585 7.211295e-05 0.0039884113 0.0019633314 0.0040456075 -0.0011101189 0.0026084078 -0.0037585238 -0.0029740534 -0.005428022 -0.0007986181 -0.004782986 -0.0026827045 1.1900349e-05 -0.0008525873 0.0008941154 0.002953963 0.0024080144 0.0025276716
up 3.527403e-05 0.006561687 -0.0039848723 0.0011117032 -0.0020890282 -0.0042252797 9.0540045e-05 -0.0016524062 0.00516616 0.0029526558 -0.001838212 0.004022656 -0.0054405816 -0.00020554199 -0.00019161993 -0.00087205245 -0.0030783534 -0.0029174096 0.002274139 0.0019346254 -0.0058479644 -0.0019399622 0.0049134525 0.0023296007 0.0040000193 0.0042736023 -0.0025502895 -0.0050039724 -0.002865484 0.004919652 -0.0015441951 0.0022037688 0.0042741047 -0.002307672 0.0011750634 0.0011392597 -0.0031188775 -0.0042371433 -0.0055313683 0.0024278974 -0.00010957989 -0.002883399 -0.00023874428 -0.0053471453 0.00011368764 0.0024593975 0.0051188865 0.0040538 0.0006862782 0.005971142 0.0019364874 -0.0012523701 0.0049619377 -0.0029116236 0.0035666134 0.0026828328 0.00464248 0.002422803 -0.004666521 0.0003754832 -0.00345117 0.0006206216 -0.0022836663 -0.00519437 8.801902e-05 0.0017617575 -0.0018765418 0.005184142 -0.0044145384 -0.0035805672 -0.004356608 -0.0018447374 0.0032493153 0.0030794821 -0.0045410953 0.0037658128 -0.0059693367 0.0047980254 0.0009335946 0.0053080097 -0.0061369967 0.0023009605 0.0032444037 0.00038093553 0.0031901028 0.00096696627 -0.0005524694 0.0031431161 0.0039077085 -8.536367e-05 -0.0030861595 -0.0072141476 -0.0038697151 0.0040847925 -0.0009919851 0.0021554232 -0.003803168 0.0010223689 0.0044004996 0.0034874657
shirt 0.0014430725 0.0047909794 0.0021049455 0.002895167 -0.0031822533 -0.0025671686 -0.0024000385 -0.00025628987 0.00015206296 -0.0040454715 -0.0014447507 0.0039054665 -0.006632246 -0.004268752 0.0024850029 -0.0036055308 -0.0051171286 -0.0063899104 -0.004320603 0.0025528118 -0.0033417542 -0.0027947917 0.0062305164 0.0010391921 0.0045830365 0.0016789826 0.00039184894 0.0017366639 -0.00060642266 -0.0031101203 0.0029768967 -0.002964341 0.0032806979 0.0013021867 -0.00264288 0.003193971 -0.0034545874 0.002154326 -0.0024928534 -0.00055630173 -0.002518664 0.0029162655 0.0046128836 -0.0010620069 0.0017967706 -0.004545581 -0.0011587276 -0.002275218 -1.0091738e-05 0.001395178 0.002195521 -0.0009925772 0.0012497016 0.0049794954 0.0008763521 0.0005654723 -0.004430746 -0.0033488786 0.0019875364 0.0024895319 -0.0059884274 0.0006548416 -0.0032240895 -0.0049363854 -0.0037607404 -0.0031621375 -0.0063523934 0.0047215302 -0.0035917126 0.0018036567 -0.0010262144 -0.0023716595 -0.0025364533 0.002969995 0.0032587962 0.0027255246 -0.0053283256 0.0047613997 0.005037963 0.0043489058 0.0009827021 0.0038581279 0.0028039273 -0.004261555 0.0031552978 -0.00045115442 0.0009251556 0.001069798 0.0008952721 0.0036963853 0.0035391417 -0.006281373 -0.006727722 -0.0029582789 0.0014530445 -0.0025163013 -0.0004518099 0.0063437982 0.0004027171 -0.00022306935
next 0.0044742883 0.0038947673 -0.004479355 0.0010832563 0.005949849 -0.004232864 -0.00070230896 -0.00044619283 -0.00037788937 -0.0027769313 -0.0037833692 0.0018734111 -0.0069323694 0.0021264402 -0.0016972953 -0.005453851 0.0047479593 -0.0039914213 -0.0021823219 -0.00067096617 0.002291476 -0.0022364603 0.005097982 0.000996684 0.0025923275 0.0026182241 0.00012947997 0.0022401612 -0.00367151 0.0039731488 -0.0062249666 0.00082016713 -0.0044273003 0.00041918896 -0.0036793833 -0.0018354572 -0.0001337366 -0.003509603 -0.004361337 0.0016550638 -0.0060244347 -0.0027884548 0.0014661008 -0.004499806 0.00503214 -0.0018861623 -0.0019727459 0.0031594809 0.003302934 -0.00024518158 0.0015161616 -0.001210244 0.0043893517 -0.0015145825 -0.0027366392 0.00061483664 -6.509531e-05 0.00060191134 0.0011408455 -0.0007440917 -0.006062021 -0.0040579005 5.8495843e-06 -0.0020006774 -0.0013972464 0.00014223965 -0.003212206 0.0016363773 0.00084942667 -0.0016842652 -0.0037358417 -0.0023333116 0.0020038562 0.0013950801 0.003110742 -0.0019496677 8.817364e-05 0.002137639 0.0022988634 -0.0034883777 -0.004665223 0.0036639236 0.004532047 -0.0001246894 0.0028386945 0.0040731328 -0.0015352323 0.002425352 0.003966424 -0.0051450115 -0.0054212124 -0.0037978387 0.00090875936 -0.00037707266 0.0060099205 -0.0017715712 -0.004479014 -0.0005260544 0.0018227071 0.0021497712
front -0.0048571173 0.0058601713 0.0037037672 -0.00096817786 -0.002461805 -0.005168029 -0.0041379686 0.002856803 -0.0004363679 0.00071936706 -0.0023004157 0.005566391 0.0008622013 -0.0035966903 -0.0029455156 -0.0015762683 0.0033428152 -0.0033482565 -0.0019555301 0.0018924328 -0.003859988 3.171348e-06 0.0038797657 0.002152633 -0.0034606499 -0.0026325344 0.0024005428 -0.0038592222 -0.00028317815 6.397929e-05 -0.0019656003 0.0028413315 -0.0047050775 -0.00017408543 0.004554516 -0.0012536447 -0.00073908805 0.0046369242 -0.0010750953 0.0019347058 -0.0047847573 -0.0008415819 0.004472602 -0.00058036944 -0.00047596724 -0.0013106926 0.004883291 -0.004241966 -0.0019881662 -0.0035253556 0.0047396407 -0.004866875 -2.5224454e-06 -0.004050213 -0.0045863935 0.0006464869 -0.0015486372 -0.004142372 -0.0065990197 0.004464184 0.00078995747 0.0028149472 0.002434427 -0.00539273 0.0051113027 -0.0037497913 -0.0020562252 -0.0040028347 -0.0032589333 0.002670247 0.0028504287 -0.0053339237 0.00407129 -0.0055833226 -0.003184009 -0.003884465 -0.001255914 -0.00012815397 -0.0037817063 -0.0004275205 0.0026091507 0.0012426669 0.005138951 -0.00025816984 -0.0028553135 -0.0027700672 -0.00034638 -0.0028351718 0.0028483768 0.002080373 -0.0057047205 -0.0023624564 -0.005237086 -0.0034975563 -0.0016644725 0.00030759303 -0.0034429356 -0.00036706857 -5.1625364e-05 0.0026231303
by -5.1519983e-05 0.002475717 -0.0048300084 0.00024274358 -0.002498311 0.0034509283 -0.0010198862 0.002627259 0.0040058596 -0.003892429 -0.00025908544 0.0011240371 -0.0006357017 0.0017146836 -0.0028377918 -0.004509335 -0.0050425525 0.000267075 0.0008083198 0.00046966173 -0.0042912187 0.0012493574 0.0032448368 0.0026907283 0.0020066446 0.0047147586 0.0039291987 0.0014936002 0.0019897816 -0.003474308 0.0033310307 -0.002686497 0.004095464 -0.0056080697 0.0022539797 0.0012420596 0.0038996567 0.0032903762 -0.005021234 0.004132133 0.0025182215 0.003386126 -0.00304912 0.0008791732 0.0025808886 -0.0018835467 -0.0012703663 0.0046700644 -0.0027941903 -0.002556358 0.0035540273 -0.004917823 0.0019379499 -0.00044584862 -0.0015132168 0.00030596435 0.0021572998 -0.0028962467 0.0023857602 -0.0037123961 -0.0015773899 0.0023391799 -0.0041335956 -0.0038627398 -0.0011107901 -0.0029803042 -0.004077353 0.003664525 0.0026962894 0.0015045773 -0.0032764226 0.002152373 0.0024247067 -0.0038326296 -0.0038466542 0.0033282693 -0.0013302527 -0.0044940896 0.000198834 -0.00073936005 -0.0039993622 0.0035214662 0.00412903 0.0012698169 0.0019851138 0.0019018376 -0.0052704457 -0.0051374845 -0.0028536774 -0.00017418967 -0.005652795 -0.0021634775 0.003014456 -0.004944966 0.005346258 0.0032748412 0.00070276536 -0.0035541528 -0.002592443 -0.0038504573
large 0.00036963957 0.005686312 -0.001998548 0.0029468595 0.0012620973 0.0016880487 0.0024157527 -0.0042398577 -0.0042275144 -2.2946713e-05 -0.0031769164 0.00083990314 0.0016666988 -0.0048123514 0.00076852937 -0.0019130777 -0.002523968 0.0013463323 0.003502257 -0.00075560325 -0.00446935 0.0029227324 0.005705086 0.003665639 -0.0043751188 -0.005211999 0.0017716121 -0.0018840228 0.0030685964 0.004507471 -0.0043764915 -0.00017098713 -0.0030534056 0.003278233 -0.0043282937 -0.0037815243 0.003358501 0.0011525194 -0.003398141 -0.0022409696 -0.0047900267 -0.00013866083 0.0023161836 -0.001877364 -0.002117913 0.0017432661 0.0038836235 -0.0015003731 -0.0027575034 -0.000456453 0.0034693733 0.0046319817 0.0034712532 0.0047246157 -0.004701758 0.0027117745 0.0052363235 -0.0029464758 -0.0023561702 0.0020399718 0.0016982561 -0.0020068365 0.0025525969 0.0043328437 0.00019337244 0.00013801306 0.0027638585 -0.00107426 0.0029745132 0.0018629703 0.0042281547 0.0044594286 -0.0020121504 0.002922616 -0.0020664139 0.0035726486 -0.005485479 0.0030167426 -0.00084610493 0.0035238715 0.0037214302 0.00035632707 0.005158652 0.00083615317 0.0040949145 0.0040687663 -0.002003718 0.0012350141 0.0005403486 -0.00034605546 -0.0040297383 -0.0032360777 -0.0054897815 -0.0001282515 -0.001793149 -0.0017091556 -0.004151643 0.00032336396 -0.0044426518 0.0038342162
children 0.0027183245 0.004848322 -0.00020903288 -0.004631797 0.0012473401 -0.0040012496 -0.0012720318 -0.0017514259 0.0017640911 0.003661131 0.0051296256 -0.0015820465 0.0012301878 -0.0028420251 0.003972352 -0.0023672841 0.0042055133 0.0024982255 0.001544127 -0.0010454763 -0.00077636633 -0.0045260093 0.0037850754 0.005058079 -0.0014194183 -0.001991669 -0.0014675491 0.004810823 -0.002584045 0.00091801636 -0.006271221 0.003855373 -0.001295573 0.0031657442 0.00070844876 0.0032876863 -0.00080760213 0.0019517979 0.00041218742 -0.0012917975 -0.0040407167 0.00036533733 -0.0036450364 -0.000238636 -0.004128753 0.0019185836 0.0019968816 -0.0041775103 0.004170831 0.005151793 -0.0027751918 -0.000112556896 0.0029152245 0.0043571107 0.0046447646 -0.004678384 -0.0029711903 0.00367135 -0.0017010063 -0.002386525 -0.0058685043 0.0021746487 -0.0002340866 -0.001764178 0.0029740718 0.0015804071 0.00048975146 -0.002766532 0.004977949 -0.0035650549 0.0019796588 -0.0050125844 -0.0039992672 0.0010149911 -0.0025897948 -0.002790436 -0.0025538653 0.0026446646 9.534372e-05 0.004817481 -0.004585056 0.0020373822 0.0050256657 -0.002361507 -0.0030598086 0.001977877 -0.0030034678 -0.002374771 0.001314846 0.0034727177 -0.0022134706 0.0015012986 -0.0022881718 -0.0015126438 -0.0017990702 0.0008644862 -0.0012006246 0.0047789197 0.0043143956 0.0031189446
pink 0.004352378 0.0025244963 -0.00091993384 -0.0042480305 0.0010997101 -2.8909659e-05 -0.0022311918 0.0015729738 -0.0013221216 -0.0024922967 0.00079964544 -0.0015751031 -0.0029528567 0.0028234455 -0.00041184103 0.0006704898 0.0024138526 0.0013555816 0.0027136607 0.0020671918 -0.0022641849 4.1425283e-05 0.006190422 -0.0019147039 -0.0041966042 0.000218583 0.004686845 -0.004838115 -0.0016251355 0.001273224 -0.00058637175 0.00479513 -0.005512729 -0.0051853457 0.00068144995 -0.0022026016 -0.0028083057 -0.0027780226 0.0019008552 -0.004914684 -0.005025771 -0.004909447 -0.004243667 -0.00554212 -0.0038345356 -0.00022782818 0.0052826763 -0.0033620603 -0.0010477226 0.005719252 0.001976278 0.002687583 0.005103368 0.0038151597 -0.0022622503 -0.0036761358 0.004889096 -0.003332516 -0.0009311352 0.00013749058 -0.006511238 -0.00039921567 -0.0017019598 -0.0044152536 0.0018459451 -0.005111055 -0.004664792 0.00048618618 0.0034149557 -0.00046228987 -0.00047298358 -0.0054045604 -7.557824e-06 0.0012146751 -0.003638782 -0.0016284961 0.0016219825 -0.0012933285 -6.616988e-05 -0.0032132263 0.0021346963 0.003652253 0.0039042605 -0.0048761973 -0.00058514456 -0.003924319 0.0035189537 0.0032613513 0.0018612759 0.0012085807 -0.002041828 -0.0014933406 0.0004152339 -0.00030053806 0.0022423593 -0.0029308726 -0.0047173705 0.0041844957 6.312019e-05 -0.0030075216
group -0.003581334 0.0021896597 0.0018806893 0.0008459048 -0.0033118797 0.00088125316 -0.004507234 7.643617e-05 0.0006426611 0.0040836697 1.1679147e-05 0.003930322 -0.0015835668 0.0037787026 0.00397949 -0.001018522 0.0003054068 -0.001034154 0.0035382267 -0.0036218269 -0.0015435641 0.0037385307 0.00210459 0.00049149187 0.0046054157 -0.0014380593 0.00095322274 0.00068631815 -0.0024406705 -0.0034211846 0.002007668 0.0033564174 -0.00413637 -0.0050894776 -0.0009026685 -0.0042930534 -0.0040574577 -0.0009895088 -0.0010778203 0.00094463053 -0.0017502899 0.0037046866 0.00021257602 0.00297913 -0.0028381122 -0.00447581 -0.0021031776 -0.0016427066 0.0015404146 0.0032513735 -0.0027266892 -0.0026913092 0.0047678538 -0.0019292693 -0.0031794736 0.0008241592 0.004725869 0.0015495907 0.0037776756 0.001230325 -0.0062729465 0.00028664144 0.002013307 0.002027784 -0.0018286776 0.0024583475 -0.0006096565 0.0044236826 0.00012349141 0.004437553 -0.00070386456 -0.0001091402 -0.0028939403 -0.0022251955 0.003164529 0.00014315693 0.00058779464 0.0033701113 0.0046729012 -0.0010706461 0.0020096693 0.0026672704 0.001197092 0.0012717993 -0.003124598 0.002095622 0.0020748652 0.0005943841 -0.0005352477 -0.003920287 0.0016041065 0.00225593 -0.00012112171 0.0008738245 0.0034626434 0.0016988674 0.0025849275 0.0054089027 -0.0036528993 0.0036938558
side 0.003738027 0.0040746275 0.0010240113 -0.001734871 0.0045665284 -0.0028765323 -0.0012902219 -0.0015435634 0.0028717988 0.0033093048 0.00470179 0.0041318024 -0.004225438 0.0036826574 0.001637635 0.0018910933 -0.0020689766 -0.00072382664 0.00061260525 0.0031694444 0.004025021 -0.0031401173 -0.0002574124 0.003240844 -0.0006819404 0.002147476 0.00513852 -0.0019367222 0.0033586258 -0.0010853508 -0.0035891982 0.0021768576 -0.0014657745 -0.0033380967 0.0006855045 -0.0012745707 -0.0025324477 0.0022093994 -0.0031168833 -0.0035351443 -0.0035060698 -0.001170435 0.0026810085 -0.0021935347 0.0006978702 -0.0004948815 -0.003440231 0.0049636825 -0.0029485268 0.00013576624 0.002847062 -0.00025367652 0.002059399 0.002353511 -0.0029842136 0.0020959617 0.0035565936 0.0016583687 -0.0035591328 -0.0023349128 -0.004942735 -0.0014777258 -0.0012697041 -0.0012837262 0.0040702815 -0.0031821772 0.0010855793 0.004329332 0.0014210679 0.0048732576 0.0029096422 -3.7998852e-05 -0.003805561 -0.0035573952 -0.00052995415 -0.002922495 0.0018529668 0.00035409105 -0.004328766 -0.003754331 -0.0033288093 0.0004889545 -0.003675289 6.0021375e-05 0.0006507288 0.0032088237 5.4562884e-06 0.004134175 0.0007596833 0.0021791575 0.0010598559 0.0026301895 0.00021214038 -0.0030204996 -0.00015218853 -0.0032684712 0.0021918744 0.00072451954 -0.004278142 -0.003925185
little -0.0045117005 0.0035490384 0.0034164435 -0.0020780796 0.00035587713 -0.0028598513 -0.0021566222 -0.00041781826 0.0024623247 -0.0016275122 -0.002664533 0.0019029854 -0.0043975394 0.00060206774 0.00015882507 -0.0039950833 -0.0045814044 -0.0059245313 -0.0043081176 -0.002430712 -0.0012647228 0.00043643673 0.005193854 0.00035257023 0.0050531495 -0.0021284544 0.0044437395 -0.002459386 -0.00045031725 -0.0020288082 0.0036368044 0.0026816775 0.0037077595 -0.0036124769 -0.00444328 -0.00033808255 -0.0025851277 -0.0031820445 -0.0009579077 -0.0046111653 -0.0041037104 0.0034503883 0.00027351113 0.00095722586 -0.003713334 -0.0005321702 -0.00020814962 0.0025933196 -0.004330127 -0.0038518165 0.0055762315 0.0033824986 0.00075368804 -0.00025946263 -0.004219655 0.0037511727 0.0022015641 0.0019173722 -0.004844574 -0.0023282585 0.0034094485 0.00038140296 0.0017451004 0.0014214972 0.0006477067 -0.0025769915 -6.676001e-05 -0.0013146903 6.469055e-05 -0.0034912932 0.0009860212 -0.00025955617 0.0015665293 0.00037453545 0.0017231257 -0.00018913165 -0.0040645828 -0.0029186558 -0.004495657 -0.001137872 0.0023620292 0.0007863957 0.00039016362 -0.0017384439 -0.003708586 -0.0042573973 -0.005582626 0.0047249156 -0.003401525 -0.0027245115 -0.0042862557 -0.0046465416 -0.0011439598 -0.0037578428 0.00041231897 0.0010418827 -0.0018868797 -0.0040276637 0.004519103 0.0040714373
another -0.001459219 0.004431692 -0.004215284 -0.004371985 -0.00029246186 -0.00061886286 0.0030952757 0.003213361 0.004322983 -0.0003623429 0.004388839 -0.0008291399 -0.004565232 -0.002304447 -0.0004977903 -0.0056844475 0.0018898987 0.0027379536 -0.004014598 -0.0033126534 -0.0007924331 7.798106e-05 0.005680213 0.0030010378 0.0030949847 -0.0029231599 0.0018373143 -0.0012933639 -0.0022542684 -0.003428638 -0.0057474603 0.006009985 0.0012842506 0.001605191 -0.004778996 -0.00042990805 -0.0021610514 -0.004159539 0.00031523683 0.0037086813 -0.0060285446 -0.0022377914 -0.0031237234 -0.0016338319 0.004088848 0.0037115922 0.0036353806 -0.0016165028 -0.0051079895 0.0060959705 0.0043584276 0.0036210252 -0.00096006156 -0.0012118083 -0.0040480704 0.0030697295 0.0016731285 -0.0062939427 -0.00015553813 0.006703272 0.001639676 -0.0056104525 0.0032996922 -0.004479556 0.0015439087 0.0026380413 -0.005248693 0.003319662 -0.004070847 0.0011054928 -0.0004077566 -0.0037540696 0.0005443265 0.0030953432 -0.0039878474 -0.0027684958 -0.0008089987 0.0037583795 0.00058459403 -0.0019354962 -0.0020447944 0.0053086597 -0.0009835149 -0.004034646 -0.0013053798 0.000941783 -0.0042868364 0.0040742764 -0.001959147 0.00080215477 -0.00097274827 0.0015298377 0.0023001358 -0.0030082064 -0.0029725966 -0.00047136014 0.0029905029 0.0023452258 -0.0033667642 -0.0033551063
dogs -0.0048611895 0.0004948808 0.0034987866 0.0009449171 0.0018953831 0.00030264055 -0.0013511735 -0.00033032722 -0.00010557095 -0.0023124523 -0.0041173217 -0.0033421612 -0.005084747 -0.00011732079 -0.0010821564 -0.00011984601 0.004537911 -0.0040827747 -0.0014361172 -0.0007545747 -0.0017460044 -0.002516092 0.00117862 0.0020945962 0.00441758 -0.002592695 -0.0017050569 0.0049454886 0.0023901057 0.0012635113 0.00011558561 -0.0012033882 -0.00460839 -0.005145685 0.0012961562 0.002908501 -0.00380022 1.5381078e-06 0.0011265652 0.0010828348 0.0013450887 0.0029872782 -0.0028742203 0.00010756629 -0.00328538 -0.0037458164 0.0010074942 0.0024875689 4.1094836e-06 -0.003515692 -0.00029171573 -0.0016373321 0.005231872 -0.0005209751 -0.0043598427 -0.0011657387 0.0037398718 -0.0031009216 -0.0025581878 0.0050589093 -0.0004463045 0.0021235112 -0.0020660395 0.004461221 0.0012655677 0.0014881862 -0.0052808155 0.0034685463 0.0018332375 -0.00340738 0.004265693 -0.0050003035 0.0010602932 0.0030054275 0.0011949497 -0.0046060625 -9.790417e-05 0.0051004672 0.0014661058 0.005091363 0.00081049826 0.0056253304 0.00019060046 0.0027162165 -0.0018658538 -0.0040102005 -0.001912662 -0.0012075965 -0.0015981668 -0.00039434535 -0.0018812706 -0.0016521104 -0.0023103934 -0.0017594552 0.005575129 0.00059573905 0.0017360032 0.005607584 -0.0014622912 -0.000909276
face -0.0026567874 -0.0030047551 0.001039736 -0.004897483 0.005074346 -0.00585679 0.0021612016 0.0005133479 0.0039147623 -0.00031508942 -0.003648529 -0.0032645299 -0.0054658 0.00041427594 -0.0027872357 -0.001295511 -0.0043871626 -0.0059608086 0.00060069514 0.0029109018 0.0005496092 -0.0017893225 0.005556136 0.0006364262 0.004369504 -0.002546325 -0.0021587845 -0.003764384 0.002008093 0.00037720893 -0.00072922674 0.0014770649 0.0017380894 -0.0058089644 -0.002813366 0.00071329833 -0.000115123024 0.001285785 -0.004008607 0.0019459187 -0.0012682425 0.0038433264 -0.0027527092 0.00336312 0.004703667 0.002222433 0.0023442598 -0.0003814095 -0.0040731984 0.0006404015 -0.0032387227 -0.001968809 0.0047582663 0.0012409318 -0.0007661672 -0.0009987445 -0.003282802 -0.003952635 -0.0011855803 -0.0009408153 0.0018176563 -0.004480623 0.0020425553 0.0014622266 0.002977613 0.00048174808 -0.005939126 0.003639342 -0.0018969361 -0.002733595 0.0036286206 0.0031443464 0.0023312937 0.0035751024 0.0032398656 -0.0030454476 -0.00083389133 -0.00055814284 0.0006574667 -0.00075115555 0.0013726677 -0.00035668275 -0.0030536496 -0.0021317198 0.0032360037 -0.0034528093 0.0037988734 0.003751936 0.0010176846 -0.0046917507 -0.0021877452 -0.0051352503 -0.0018238149 -0.0017454666 0.00471718 0.0019006016 -0.0055851196 0.0006970646 -0.0017281868 0.00076468644
as 0.004333461 0.0068564643 -0.005341427 0.003093172 -0.0008920994 -0.0049333954 -0.0032322714 -0.0009941588 0.0038106262 -0.0037211229 -0.0004499975 -0.00028489763 -0.0055835294 -0.00063488854 -0.0021699024 0.0008079354 0.0004264569 -0.0029217028 -0.0017073901 -0.0044765756 -0.001057693 0.0017524518 0.003188401 0.0023659798 0.0034863895 -0.00055975164 -0.0037133878 0.0022512958 -0.003394547 0.005304142 -0.0008807629 0.002411941 -0.0025285347 0.0032219428 -0.0037011323 -0.0034761494 0.0031006753 0.00091419235 -0.0048335856 -0.003262522 0.0037193082 0.0034989512 0.00487899 -0.005445458 0.0023979181 0.003606183 0.0053057056 0.00042790978 -0.0009256645 0.005560166 0.0007481817 0.003251854 0.0034188628 0.004143014 -0.0047536585 -0.00036743493 0.0020486976 0.0021830874 -0.0012243104 0.0054423553 -0.0042843483 -0.0045848563 0.0034846517 0.0036116769 -0.0029241457 -0.0043436904 -0.0041474784 0.0009924652 0.0046450053 0.002244248 -0.0032455034 -0.0016808795 -0.0025661888 0.0028977648 0.0045698956 0.0009578408 -0.004381072 0.0030326182 0.0038185904 -0.0028628062 -0.0056764167 0.0034012783 -0.001737748 -0.0045798947 -0.004227169 -0.0035273698 -0.001245162 -0.0012313061 0.0006046963 -0.0021903173 0.0030145016 -0.00596835 -0.0066706524 0.0037708157 0.00419766 -0.000808547 -0.005196421 -0.002977544 -0.0030890591 0.0020731303
off 0.0046633626 0.0012998852 -0.0008147158 -0.0025240015 0.0004092047 -0.004728935 0.0045434292 -0.0031930308 -0.0039369473 0.0031388581 -0.0014346001 0.0041370504 0.0010116866 0.00043653813 -0.0024410065 -0.0033105689 0.00019079499 -0.0032011583 0.0010078222 -0.005290258 -0.0008438625 0.0010572976 0.0036531766 -0.0010771898 0.004184803 0.0020968907 0.0040449235 -0.0049475953 0.0038639707 0.003532675 -0.0031332634 -0.0027240987 -0.0014140697 0.003517647 0.0037771587 -0.0028429162 0.00097567064 0.0012602217 0.0019511939 -0.0021854648 -0.002547318 0.0013258627 0.0049033063 -0.0013817615 0.0027977393 0.0023064616 -0.0022462325 0.0036470827 0.0007245688 0.0012463072 -0.0023489683 -0.0014357135 -0.0006587617 0.0015540331 -0.004862631 0.00092542625 0.0031004662 0.002547475 -0.005894259 -0.0026280715 -0.0035221488 -0.0010121061 0.005089834 -0.0013873888 -0.0035115776 0.00041456765 0.0021907573 -0.0001899688 0.005050043 -0.00037543726 0.00043269584 0.0005646308 0.0010211158 0.0032607778 -0.0023824174 0.0015683954 0.0034084118 -0.0038268985 0.0011850666 0.0043435623 0.0015438623 0.0035430903 -0.0023737065 -0.0018034045 0.003523915 0.0002663445 -0.0026160164 -0.0008124559 -0.0026813084 -0.0050265775 0.0020151553 -0.005034817 -0.0060856156 -0.0037065297 -0.0041873325 -0.0012139619 0.0001422186 0.0041820644 -0.00454275 0.002850964
jacket -0.0029074047 -0.0012102571 -0.0047834455 -0.0016847171 0.0056444723 -0.0059360648 0.0018091231 0.0015766195 0.00038821518 -0.00250032 -0.0017030337 0.00023889441 0.0026411426 0.003601005 -0.00084183505 -0.0027312909 0.000981452 0.0015614283 -0.0053151543 -0.0028383618 -0.0025906921 0.0011545426 0.0059159966 0.0065373755 -0.00066483155 -0.0011636686 0.003628107 -0.0045153233 0.0031243607 0.0048338138 -0.0056240107 -0.003131237 0.00063390663 0.0017662009 -0.0030318527 0.001327267 0.002565743 -0.0030943588 -0.003963847 -0.0036672002 -0.003977712 0.0026143212 -0.0029160262 -0.0019540044 0.0011290195 0.0014563204 0.0045195976 -0.0042887293 -0.0029401102 -0.0017687585 -0.0016229714 0.004462659 -0.0009608878 0.0013074023 0.0024186508 0.002998132 -0.0030341602 0.00077662116 0.00015362367 0.0023610506 -6.614175e-05 -0.00086946465 0.0041876724 -0.0019420874 -0.0036886535 0.0012607517 0.0026620042 0.0007999573 0.0036957997 0.0009552052 -0.0023038394 0.00078214175 -0.0028346693 -0.00092082046 -0.00072345155 0.0012801968 -0.004785894 0.001099785 0.0012342393 -0.0014543647 0.0025336293 -0.00023889907 0.0046330676 0.00018042201 0.0007801547 0.0013399392 0.0034126043 -0.0012197791 -0.0022911443 -0.0006716355 -0.0035045051 -0.0056389403 -0.006213909 -0.0052570202 0.0040153014 -0.0024038106 0.00088509265 -0.0011179954 -0.0036581848 -0.0046927817
field 0.0028319615 -0.0019126841 0.00029449543 0.0037399223 -0.003393454 -0.0034494696 -0.0018925837 -0.002484617 -0.0016458855 -7.5315336e-05 0.0032830972 0.0037449773 0.002276166 -0.00050770113 -0.0026863376 0.00031140688 -0.00088554976 0.0008762769 -5.9350103e-05 0.00284189 -0.0034848189 -4.1249164e-05 0.002877973 0.00044393723 -0.0026024801 0.0009328231 0.0012062485 -0.0045144106 -0.0018641633 -0.004858977 -0.0047391467 0.0043606814 -0.004593154 -0.0047031026 0.00074492133 0.002707824 -0.002682915 0.0027894366 0.00068194035 -0.0045047207 0.0002899222 -0.0055255475 0.0012534432 -0.0012085288 0.0031104025 -0.0049998127 -0.002873003 0.0035000693 -0.002511446 0.0027241788 -0.00051297114 0.0012766363 0.00017010866 0.0008782027 0.0021195759 0.0025077737 0.004609012 -0.003080651 0.0009624535 -0.0012018762 -0.0055281497 -0.004051854 -0.001406359 -0.004903664 -0.0023401936 -0.0023223886 -0.0050577186 -0.003790968 -0.0032300793 0.0044506476 -0.004573295 -0.001950888 0.00063159503 0.0043978537 0.001014644 -0.0003634268 -0.0018693527 0.00091755023 0.0010859836 0.0005334917 -0.00427603 0.0049972446 -0.004442315 -0.005142404 -0.00060105097 0.003568309 0.0017054736 -0.0050323186 0.0040569226 -0.0022722345 -0.0019930305 0.0013421087 0.0011327899 -0.0045995372 -0.0029199407 0.0040386235 -0.0018654914 -0.0016315113 -0.0048149363 -0.001389221
young 0.004405889 0.0009990294 0.0024817174 -0.0050392724 -0.0033762068 -0.0003017917 -0.0028290001 -0.0005960098 -0.0046929247 -0.004066026 -0.0035747932 0.0014887841 -0.006045029 0.004589112 -0.004844582 0.004473762 0.0044353097 -0.00014746933 -0.003674686 -0.0049451385 0.0022509394 0.002958295 0.001608336 0.0022669346 -0.0010195244 -0.0016509163 0.00022222783 0.002736206 -0.00097025285 -0.0019108697 0.00014859722 0.0017147412 7.0053843e-06 -0.0025962547 0.0012434553 -0.0048456094 -0.0010436199 0.0043552713 -0.00057294505 0.00073785265 -0.0017757295 -0.0028458955 0.004463935 -0.0047411625 0.0035820527 -0.00039804005 0.002048048 -0.002544369 0.00046209065 0.0040829103 -0.002733694 0.0019488258 -0.0022645423 -0.0027363647 0.0025740038 0.0022884996 0.002213078 -0.0014624067 -0.000111657726 9.730526e-05 -0.0049411496 0.0012940952 0.0046577486 0.0008958926 -0.004609112 0.0022526453 -0.004710489 -0.003682351 -0.000560149 -0.0011550914 0.003725627 -0.00050894555 0.0017461593 -0.0047910633 0.0021931424 -0.0032766238 0.003925451 0.001183983 -0.0041628466 0.002669241 -0.0026271902 -0.0019007652 0.00020608697 0.0024356027 0.0037855252 -0.005117586 -0.00203575 -0.0005885778 0.0020672937 -2.637816e-05 0.0019413213 -0.005087091 -0.0010824655 -0.0051030903 0.00019434048 0.001716425 -0.0025027248 -0.0013506401 0.001238786 -0.00223386
sitting -0.0026249515 0.0060729845 0.0020764621 -0.0017671006 0.005225014 -0.0045671966 -0.0033016966 -8.3101724e-05 -0.0006398669 0.00092245196 0.0051785284 0.0017289625 -0.0012098916 -0.0022421356 -0.0035228785 -0.004468137 0.0034768796 0.0022368159 -0.0028145856 0.0009440265 -0.0017935073 0.00010483155 0.0022015036 -0.003210614 0.003681876 -0.0030201252 -0.0020498482 0.0047944714 -0.0047603427 0.0039369245 -0.0043653357 0.00355877 0.0011858412 -0.003239761 0.0036133039 -0.0010275136 -0.0044253506 -0.00033235954 0.0018456259 0.004123967 -0.0026684583 -0.003950662 0.00055225124 0.0016175081 -0.003281231 0.0035254157 0.0011927541 -0.0033948405 0.0026658943 -0.002108316 0.0008410767 -0.0042805267 0.0047522136 -0.0032900274 6.159657e-05 -0.003032966 -0.002789796 -0.003065021 -0.0018814822 0.0033931944 -0.0063554337 -0.003597646 0.0010725302 -0.004310201 0.0044302642 -0.005383211 0.0029659213 -0.002148626 0.004135039 -0.0010613245 0.00012843551 -0.004812784 0.0052053584 -0.0042562373 -0.0010299424 0.00043827674 -0.002703375 0.00052381563 0.005176431 0.0044513606 -0.0012610892 0.003009038 0.0037115212 -0.0035762226 0.0019522869 -0.003038789 -0.0017636112 -0.0007542915 -0.0012768451 0.0013562919 -0.00062150316 -0.000112080736 0.0005655867 0.0044030193 0.0022235173 0.0010477607 -0.006069443 0.0021773304 -0.0028466603 0.0024962742
baby 0.0016434146 0.0021821593 0.00027011518 0.0024191167 0.0036695092 -0.0027004818 -0.00012000783 0.003652908 0.0015418635 -0.003788706 0.0006161561 0.0012454268 0.0031818713 -0.004764614 0.0013344618 -0.0022496737 0.0011530167 -0.000992372 -0.0049370606 -0.0017593837 -0.0039021154 0.0005193111 0.004494276 0.003974947 1.1833812e-05 -0.0031611929 0.0051516583 0.0030198395 -0.0031328194 0.0028273049 0.0033824237 -0.00041926428 -0.0028021522 -0.0028590169 -0.0033653453 0.0011128259 -0.0016718294 -0.0030453494 -0.0035426512 -0.0042710397 -0.001035409 0.0001737791 0.00336396 -0.003777271 -0.00049056334 0.0049819145 -0.00031383598 -0.0037437133 -0.0030117384 0.005114246 -0.00060639146 -0.0017155074 -0.0004960266 -0.0012644989 0.0023524675 -0.0051605985 -0.0022305108 -0.0044157812 0.002477835 0.0011755463 -0.0040167053 0.002835782 -0.0043350975 -0.0051054284 -0.0037544006 -0.0046211225 -0.00076064566 -0.0011022907 0.0041179545 0.0036143963 3.8301645e-05 0.00076084095 0.0029944794 0.0021365879 -0.0013727397 0.0014857504 0.0030406676 0.0012394964 0.0052111065 -0.0019236967 0.0015238902 0.0037335777 0.00012672556 0.0016089999 0.0014521406 0.0024567125 -0.005101885 0.0036608956 -0.005155423 -0.0003094353 -0.0018596703 -0.0020567873 -0.000468784 0.0011878341 0.002245399 0.0015676911 -0.0030499017 0.003313556 0.0044220346 0.0032345287
orange 0.004552216 0.0035811376 -0.0040186993 0.0027124314 -0.0025274719 0.0019216621 0.0038043885 0.0040190006 -0.0017123396 -0.0015959502 0.003538893 -0.0010888152 -0.0009319206 -0.005017794 -0.0005352917 -0.0051358826 -0.0009808269 0.002140222 -0.000766491 -0.0010058534 -0.0046111103 0.0009835784 0.003779878 0.0010946665 0.003276085 0.003683705 -0.0029419125 -0.001064309 0.0024467509 0.002758038 -0.0009448879 -0.0018659545 -0.0014520137 -0.0010762042 -0.0005046335 -0.0046555717 -0.0021526145 -0.001094588 -0.0027626082 -0.0039575407 0.0028017268 -0.0025002526 0.0028959357 -0.001239746 0.0019452353 -0.0021292618 0.00078887964 -0.0030500868 -0.0046268967 0.0039402745 0.00073979166 -0.0035448938 0.0008212324 0.0017720746 -0.0048480984 0.0024772333 0.002570224 -0.0032021157 -0.002319926 -0.0012088289 -0.005489247 -0.0004518392 0.0030439934 -0.004784182 0.001853073 0.0010574057 -0.0021693185 0.0031505276 -0.0044055884 0.0028092123 4.9279635e-05 0.0017031921 -0.0011131114 0.0003482563 0.002996154 0.0032572104 0.001620904 -0.0042720144 -0.0003595037 0.0021932097 -0.0045344788 -0.0029463726 0.004411506 0.00442996 0.0048577134 0.0025009753 0.0025172376 0.0017654072 0.004727107 -0.0047740373 -0.0043217847 -0.0047729407 -0.003576869 0.0025417611 0.0018797143 0.0010047378 -0.0028801106 -0.0033421847 0.0028326353 -0.004796833
beach -0.00081603834 0.00047546034 0.0014932388 -0.00041575579 -0.0007358624 0.003382546 0.0006417017 -0.00345103 -0.0014851729 0.004234296 -0.0027352541 0.00012612488 -0.0054095257 -0.00022896384 0.0031220694 0.002619796 -0.0023551767 -0.0004423327 0.0015447326 0.0014914552 0.00017702302 -0.0028971485 0.005738567 -0.0037144297 0.0019483458 0.0038763143 -0.0012639139 0.004135449 0.002951746 0.0020822866 0.0013347787 -0.0012775612 -0.0036446005 0.0033546959 0.004330501 0.00089513283 -0.003949456 0.0013661142 -0.0013866874 0.002672129 0.0042623957 -0.0031926828 0.0022369404 0.00043803416 0.000114109374 0.002347374 -0.0030839972 -0.0028611522 -0.0044550765 -0.0009833185 -0.0013769623 -0.002374133 -0.0016341334 0.0016651509 -0.0022864426 -0.001912713 0.0011438305 -0.0020464677 -0.0033009308 -0.0021988077 -0.0053663016 0.0021927096 -0.0014109014 0.00066646654 0.0035093941 0.0012060638 -0.00184833 0.002620062 -1.4120366e-05 -0.0038777222 -0.004654963 0.0036226108 0.0019801457 0.0020218673 0.0043519572 -0.001259119 0.00051099045 0.0012894277 0.002783022 0.00085739593 0.0014248389 0.0053289765 0.0033283834 0.0009317543 -0.0034194172 -0.00092548644 -0.0021189048 0.0020531656 -0.0008721301 0.0009095387 0.003139445 -0.0020239593 -0.0029818006 0.0026339064 0.0040844795 0.001411779 -0.005466683 0.00021996033 -0.00060627743 0.0019847746
girls -0.0047915117 0.00084870664 -0.0056453887 -0.0007928305 0.004399828 0.0023698667 -0.0019828477 -0.0037719056 0.0010348464 -7.7354634e-05 -0.00027951133 4.0442752e-05 -0.002836646 -0.0046970267 0.0023937891 -0.00315442 0.004164071 -0.002669705 -0.0022707144 -0.0010607499 0.0028190487 0.004159335 0.00273501 -0.00071378064 -3.333789e-05 -0.0041587963 0.0029248837 0.0028769954 0.0036877126 -0.00040943155 0.003112404 -0.00069507654 0.0026959945 -0.004326552 0.001134555 0.0033416357 -0.004893417 0.0016552433 -0.00066012103 -0.002209054 0.0013766494 -0.002445525 0.0042648045 0.001879319 0.004667066 -0.0030095705 -0.0037110099 0.00040041262 -0.003656382 0.004611175 -0.0009726053 -0.0028003764 0.0006439976 -0.0038431196 0.0024059017 0.0038929956 -0.0023759014 0.0032727895 0.0022890505 0.0025661662 -0.0008395405 0.0010632533 -0.002810403 -0.004001937 0.0047737695 -0.005679299 0.0036600325 -0.0033171035 -0.0020895721 -0.0032468115 0.0007175892 -0.0034932778 -0.0031745739 0.0029133977 -0.0048866267 -0.0031341796 -0.0054334644 0.00083340536 -0.0019990224 -0.0017744686 -0.0035755746 0.0058580516 -0.00051043247 0.0038129233 -0.0038948217 -0.0016988133 0.0017064064 -0.002607524 -0.0016762837 0.0014326819 -0.002172088 0.0018133997 0.0008584321 -0.004365856 0.0047183326 -0.004897154 -0.0014972071 0.002627947 -0.0007900824 0.0020391238
mountain -0.001933413 0.004549505 -0.0034808652 0.0038060208 -0.003674084 -0.0024013417 -0.003458046 0.003958783 0.0024211511 0.0025531813 0.0025339765 0.0005953406 -0.0032440242 -0.00406124 -0.0013756093 0.00023989538 0.0035877207 0.0020596355 -0.0017237577 -0.0001714325 0.0005738577 -0.0029322328 0.0012317043 0.0023814782 -0.0033290146 -0.0034290643 -0.0025606148 0.0037867872 -0.0015599999 0.0032028889 0.0024185309 0.004577694 0.0013586998 -0.0052603614 -0.0019467028 -0.00044034643 -0.0018299243 0.0030677367 0.003074804 -0.0034229865 -0.0022527862 -0.005256802 -0.00030159185 -0.00027484217 0.0014109855 -0.0018690181 9.102163e-05 0.0016072697 -0.00025740676 -3.5051817e-05 0.005525693 0.00077538437 0.0007168778 -0.003235744 0.0019333694 -0.0046594227 -0.0014033064 -0.0024921526 -0.005003591 0.0002923738 -0.0062644505 -0.00079938414 0.0050651035 0.004172573 0.0031493483 0.0028918046 -0.0027652825 0.004929513 -0.0017360891 -0.003885613 0.0042084027 -0.002201461 0.0038686749 -0.0036329452 -0.0012237676 0.0033199934 0.0026453626 -0.0006321475 0.0033525159 -0.0038508102 -0.0016046722 0.0040286095 -0.0029756508 -0.0033222453 -0.0020484314 -0.0043314756 0.00073472515 -0.0035123695 -0.0025492276 0.00140108 -0.0026351446 8.240205e-05 0.0035804003 -0.0033083523 0.0002814456 0.001116273 -0.0016814513 -0.0038984409 0.001795249 -0.005002349
person -0.004812446 -0.0002735323 -0.0022006575 -0.0014581461 0.0013380767 -0.0039405106 -0.002220835 -0.0008299757 0.0023257064 0.004337599 0.004808776 -0.004207026 -0.0017618766 0.00029314842 0.0015093 0.0027341908 -0.0011215969 -0.005258152 0.0022618575 -0.00091337087 0.0018755397 0.0006132963 0.002062762 0.001758816 0.004197026 -0.0047537587 0.0010192938 -0.004388185 0.00066495227 -0.0041701817 -0.0047188746 0.0018237664 0.00012876005 -0.002245184 0.0044431062 -8.188612e-05 0.0021323655 0.0020852785 -0.005523904 0.003860171 -0.0029228483 -0.0029351367 -0.0006651173 0.0016418141 -0.0040018996 0.0033387179 0.0007868715 0.0041824556 -0.0028920327 -0.0016794872 0.0024034057 0.0020569302 -0.0017160916 -0.0024981932 -0.0023919488 -0.0018502387 -0.0041386923 0.0019207451 -0.0021647552 -0.0008750855 0.0030976082 -0.004412964 0.0013444809 -0.0022846372 0.0030895197 -0.00066858024 -0.0012487754 -0.001464518 -0.0027449538 -0.0016370381 0.0004582804 -0.005152475 0.00440038 0.0012086264 0.0020247602 0.0023798787 0.0026261695 0.0042014453 0.0053569796 0.0018830934 0.003812238 0.0016942235 -0.0036783547 0.0037246414 0.0016176418 0.0040596304 -0.0056250454 -0.0038991 -0.00495251 -0.002333885 -0.0024926553 -0.0036416524 -0.0017734137 0.00042258273 0.00011824499 0.0024618406 0.0015193518 0.0021221251 0.0019947086 -0.0022373567
snow 0.0019772404 0.004200806 0.0027611924 0.0040914225 0.004862529 -0.0052724923 0.0018663591 -0.0022711388 0.0026831867 -0.00039210843 0.0038311048 -0.0043526194 0.0015675251 0.0009911224 -0.0014538028 -0.0021028803 0.0007817254 0.0037533 -0.0028196215 0.0021085346 -0.0016808757 0.0022659411 0.0012464147 0.0031740617 0.0018296274 0.0015210044 -0.0044035534 -0.0044614975 0.00020162674 0.0037057663 -0.0038066823 -0.0020574413 -0.0029341485 -0.0051938 0.0008578293 -0.000459254 0.0044404264 0.0009531528 -0.00093020225 -0.0040718014 -0.0022214677 -0.002555652 -0.0047118715 0.0024088859 -0.002203863 -0.003972303 0.0039073 0.0004590045 -0.0014372851 0.0010819295 0.0033693756 0.0022979022 -0.0018674358 0.0048036 -0.00171044 0.00451586 -0.0034911854 -0.0056636487 -0.00013317015 0.0021757288 -0.0044522495 -0.0033696343 0.0030609483 -0.0016722576 0.0028598963 -0.00121263 0.0029508083 0.00276442 -0.0028378584 0.003471482 -0.0047972747 0.0020422067 -0.0012366092 -0.0011530481 0.00450062 -0.0014374597 -0.0049845516 0.0011694148 0.0024701317 -0.004273661 0.0017328473 -0.0005683766 0.0027016 0.00022179015 0.004065178 -0.00032765325 0.0035407378 -0.0027668492 -0.00447544 0.0023985335 -0.0007017265 -0.004705335 -0.0013760079 -0.0034790172 0.004788745 0.0020776668 -0.0032928665 0.0014755878 0.00377476 -0.0029353541
ground 0.0011967407 0.004047193 0.0037484567 -0.005108084 0.004222173 0.0030121116 0.0046905405 0.00287106 -0.0006225325 -0.0041068797 -0.0037186102 -0.0010426352 -0.00079837366 -0.001678728 -0.0028545223 -0.003892967 -0.0017785347 0.0015299065 0.0015268753 -0.0010540759 -0.0008289217 -0.00038031154 -0.003099868 0.0038819506 0.005458631 0.0009385383 -0.002432212 0.0049748938 0.00026071028 -0.0015850972 -0.0014865645 0.0049538217 -0.0032317103 -0.00093132845 -0.0040359087 -0.00057875685 -0.0005509853 0.004530764 -0.0007437747 -0.0025866143 -0.0013855244 -0.0010893552 -0.00050741696 0.0002061077 0.003744489 0.001993461 0.0032897142 0.0034045323 0.0028967576 0.00086044904 0.0019392887 0.0011251887 -0.0038716446 0.0014194126 -0.0014489199 0.0018724531 0.0039524715 -0.005421094 -0.0029814104 -0.0013302361 -0.0055398243 -0.0023517471 0.0033711775 -0.0022872852 -0.0014021196 -0.0023365477 -0.0036438718 0.004645008 -0.0026005958 -0.0020350423 0.0037863494 -0.002520853 0.004253121 0.0009908777 -0.00024382999 0.0010896858 -0.00050069916 0.0020493844 -0.0031767518 0.004847148 -0.004044694 0.0060857735 0.0027583642 -0.004401862 -0.00013644277 0.0042054243 5.668924e-05 -0.00036774413 -0.0028321536 0.00293173 -0.0021155907 0.0011239919 0.0017923688 -0.0022991262 0.0014715685 -0.0048106844 -0.000996595 -0.0016991661 0.0031913419 0.0021488194
runs -0.0033362587 -0.002567252 0.0011904291 0.002748626 0.004946007 -0.0019011733 -0.0049106083 -0.0036752075 0.0005594643 0.0047906074 0.0025162026 0.0032560525 -0.005682327 -0.0049328837 -0.0037192632 0.00034464596 -0.0024956744 -0.0052634208 0.0036982032 0.0012924513 0.0014167947 0.0023709217 0.0037486334 -0.003414298 0.0023127517 0.0038802354 0.0016132513 -0.0014682707 -0.0057117124 0.0038780181 0.00081636064 0.005227654 0.0034913088 -0.0034533762 -0.0040494953 -0.002733032 0.0035817728 -0.0012761354 0.0019945954 -0.00084209547 0.00065710477 0.00016394809 0.005098334 0.0012556883 0.0040019965 0.0010346619 0.00033157406 0.003052657 0.001220892 -0.0038074206 0.0032879182 0.0030441445 -0.0045255404 0.0001386001 0.001802648 -0.0044768522 -0.0044562924 -0.0023807306 -4.5137844e-05 0.0010649865 -0.003275121 0.0019540938 0.0053190617 -0.0016408527 0.0012940384 0.00050920865 -0.005210997 0.00019281216 0.004562958 0.002403329 0.0027077103 0.0016821388 0.005182395 -0.0012899439 0.0011089406 0.0041837133 -0.005668696 0.00425209 -0.0040992578 -0.003162965 0.0026946021 0.0052156844 0.0009924057 -0.0033673563 0.0040226965 0.00286471 -0.0054356395 0.0018161065 -0.0016141805 -0.0011303402 -0.0035282932 -0.0030421524 -0.0056545734 0.0019902855 0.0041840384 -0.00012200295 0.0027390798 0.00309019 -0.0039786836 -0.0011797507
three -0.004541594 -0.00311481 -0.0017313724 -0.0017334389 0.0018235198 0.0037675267 0.0038727894 -0.0038241495 -0.00076340593 -0.0006345424 0.0024705946 -0.0045440462 -0.00030192878 0.0038146924 0.0046137623 -0.0011989003 -0.002958636 -0.0039417786 -0.0024515777 -0.0035928509 -0.0041872114 0.0029536395 0.0029217403 0.0024489064 0.0018689749 0.0031182587 -0.0021625299 0.0028442508 0.00038774166 0.00040084356 0.002483895 -0.0027787313 0.0046703285 -0.00018340856 -0.004498728 0.0019409532 0.004059838 -0.003487873 0.0010298985 0.0020146884 -0.0014391532 -0.0031791166 -0.0041218936 -0.002404683 -0.0026187862 -0.0032961692 -0.0028612236 -0.0017877716 -0.0038534442 0.0021819617 -0.0003224873 -0.00023847188 0.0046904064 0.0001249762 0.0018284066 -0.002623661 -0.0039019138 0.0029720287 -0.00273143 0.00041095357 0.0034942897 0.0012837951 -0.00032044196 -0.00047856686 0.0045987354 -0.0030396958 -0.0050557824 -0.0037610547 0.00043805665 -0.0003249941 -0.0040254416 -0.0019244993 -0.004109008 -0.0051358696 -0.0043242965 0.0012913462 -0.002861355 -0.004243885 -0.0004952944 -0.0018583828 -0.0033813477 0.0023355866 0.005003315 0.0016387823 -0.00027789237 -0.0023906452 0.0039095744 0.0033138853 -0.0021602286 0.0041716537 -0.0012083899 -0.0010519613 0.0017016507 0.0012339043 0.0026446094 -0.0031238405 -0.00035003427 -0.0009017069 0.0007772781 0.0022906335
